<?xml version="1.0"?>
<opencv_storage>
<opencv_ml_svm>
  <format>3</format>
  <svmType>C_SVC</svmType>
  <kernel>
    <type>LINEAR</type></kernel>
  <C>1.</C>
  <term_criteria><iterations>1000</iterations></term_criteria>
  <var_count>16000</var_count>
  <class_count>2</class_count>
  <class_labels type_id="opencv-matrix">
    <rows>2</rows>
    <cols>1</cols>
    <dt>i</dt>
    <data>
      0 1</data></class_labels>
  <sv_total>1</sv_total>
  <support_vectors>
    <_>
      5.47734408e-06 5.71239934e-06 5.57115982e-06 6.06691810e-06
      6.36368441e-06 5.59374666e-06 5.30930083e-06 5.56936857e-06
      5.76162574e-06 6.18437116e-06 6.01057900e-06 6.07372476e-06
      6.98471513e-06 7.81210201e-06 7.68390964e-06 7.86376131e-06
      7.47207423e-06 6.70967711e-06 7.26416783e-06 7.30767988e-06
      6.75197634e-06 6.83897542e-06 6.92974800e-06 6.92723597e-06
      9.06814307e-07 2.05287597e-06 1.54517807e-06 1.99135002e-06
      1.83179156e-06 1.93690198e-06 1.96890778e-06 1.68828251e-06
      1.32074888e-06 6.01914905e-07 -7.53690756e-07 6.62392358e-06
      4.41700104e-06 4.57031774e-06 4.48343462e-06 3.77933975e-06
      2.99734506e-06 3.07263758e-06 2.35428251e-06 2.58511091e-06
      2.71508293e-06 2.15051477e-06 1.79767653e-06 1.72796229e-06
      2.38705434e-06 2.91712377e-06 3.27900830e-06 2.28933141e-06
      2.17992556e-06 1.73763283e-06 1.15274725e-06 7.24590961e-07
      3.68006795e-07 1.14807177e-08 -1.35886381e-07 -5.43177748e-07
      -6.26694771e-07 -9.78479193e-07 -1.88700915e-06 -1.98879047e-06
      -1.76539379e-06 -2.06509435e-06 -1.97475333e-06 -1.79818755e-06
      -1.57595412e-06 -8.76875276e-07 -1.00338445e-06 -1.34001868e-06
      -1.61069852e-06 -5.04182935e-07 6.15909723e-09 -4.34231765e-07
      -3.92595723e-07 -1.02558531e-08 2.17341125e-07 4.14210916e-07
      8.12688086e-07 1.12811767e-06 1.20096615e-06 1.96412543e-06
      8.12433541e-07 6.82903135e-07 1.01218427e-06 8.40246173e-07
      8.26365294e-07 1.24518465e-06 1.53329131e-06 1.98739485e-06
      2.18501214e-06 2.59920103e-06 2.67244059e-06 2.30857404e-06
      1.63544428e-06 1.09470272e-06 1.38812538e-06 1.33419780e-06
      1.73161391e-06 1.91364256e-06 1.73470312e-06 1.61268247e-06
      8.67047220e-07 3.52976741e-07 -7.07597280e-07 -8.41004578e-07
      -8.83668122e-07 -1.16619128e-06 -1.47082403e-06 -1.54590828e-06
      -1.45496142e-06 -1.92897551e-06 -1.51241238e-06 -1.75336129e-06
      -2.08738743e-06 -2.24010228e-06 -2.31610420e-06 -2.40258260e-06
      -2.32507409e-06 -1.54803570e-06 -4.04392267e-07 -7.33737522e-07
      -7.50208585e-07 -1.12083330e-06 -6.44577199e-07 -4.91351727e-07
      -5.77933292e-07 -4.84467535e-07 -7.76612012e-07 -3.76310709e-07
      -9.19246872e-07 -2.10194253e-06 -1.55782004e-06 -1.65750032e-06
      1.66919293e-07 -7.17793398e-07 -3.29755636e-07 1.23372217e-07
      2.44702562e-07 5.06488902e-07 5.25542475e-07 5.66094684e-07
      7.80895220e-07 1.16127649e-06 1.38852818e-06 1.05293395e-06
      1.21429173e-06 1.14230750e-06 1.02483102e-06 1.15699856e-06
      1.18862374e-06 1.40610985e-06 1.69277553e-06 2.30741102e-06
      2.39884616e-06 2.22478980e-06 2.35361449e-06 2.18497371e-06
      2.08811389e-06 1.59115984e-06 1.23434506e-06 4.33221373e-07
      2.15088235e-07 9.05118043e-07 1.71454656e-06 4.86901126e-06
      4.85176906e-06 5.02288958e-06 4.97074052e-06 4.68203234e-06
      4.88273736e-06 4.89949616e-06 4.54638302e-06 4.69936731e-06
      4.89698778e-06 4.71483872e-06 3.92361017e-06 2.96007352e-06
      2.96011444e-06 3.49470224e-06 3.78411391e-06 3.97164922e-06
      4.12019290e-06 3.80621032e-06 3.45987701e-06 3.22821916e-06
      3.15942202e-06 2.83643340e-06 2.84495900e-06 2.66280244e-06
      2.76388050e-06 2.85985584e-06 2.85180295e-06 2.87131115e-06
      2.63724951e-06 2.64651931e-06 1.87818057e-06 1.88052888e-06
      5.38924314e-06 5.50725872e-06 5.47755644e-06 6.08243045e-06
      5.99805162e-06 5.18297247e-06 5.39990788e-06 5.72724048e-06
      5.99212490e-06 6.17432852e-06 5.79298558e-06 5.94336507e-06
      7.25340215e-06 7.63760272e-06 7.77179321e-06 7.70234783e-06
      7.07070194e-06 6.57161672e-06 7.27383758e-06 6.91999685e-06
      6.68551957e-06 -2.44794109e-07 6.75739670e-07 1.29666972e-07
      1.11871223e-07 2.81621453e-07 -2.31802886e-07 4.33851528e-06
      1.06805032e-06 6.88800299e-07 7.99194822e-07 6.94167738e-07
      7.96088329e-07 8.79775712e-07 9.47685180e-07 1.08286076e-06
      1.23349821e-06 2.15990417e-06 1.87155945e-06 1.13824933e-06
      5.67977850e-07 1.06948710e-06 1.01155706e-06 1.07016126e-06
      1.20870914e-06 6.64171978e-07 1.85200747e-07 -3.26754247e-07
      1.32213893e-06 2.42703118e-06 3.10514019e-06 3.02797889e-06
      2.10655776e-06 2.75271805e-06 2.50578682e-06 2.37810582e-06
      1.45131094e-06 1.86710110e-06 1.66130360e-06 1.63192499e-06
      1.55087753e-06 1.28153874e-06 1.48276354e-06 1.10423821e-06
      3.23721224e-07 8.36084041e-07 9.93015078e-07 1.17152763e-06
      -2.81117877e-07 -2.05524628e-07 -2.18488168e-07 -6.92902688e-07
      -7.83986991e-07 -2.26144053e-07 3.98393809e-07 9.29248301e-07
      7.45432601e-07 1.21869914e-06 1.49942878e-06 1.85695842e-06
      2.00093314e-06 2.15637783e-06 2.46603599e-06 3.32597006e-06
      2.62605181e-06 3.55807788e-06 8.25111925e-08 -3.37825554e-07
      -6.23788821e-07 7.32391356e-07 2.86495521e-07 1.62504739e-06
      2.07747189e-06 2.89306217e-06 3.18204843e-06 2.17602837e-06
      1.00597515e-06 6.90489173e-07 7.20592823e-07 5.50956713e-07
      6.19350118e-08 1.69883307e-07 2.26128378e-07 2.53446359e-07
      -2.80847985e-07 -7.41549570e-07 -8.46683974e-07 -9.02386091e-07
      -3.60705099e-06 -3.26961845e-06 -2.87975081e-06 -1.11557756e-06
      -1.60304421e-06 -1.94634686e-06 -1.92651305e-06 -2.27837290e-06
      -2.55600025e-06 -2.51184247e-06 -2.37413155e-06 -2.27234091e-06
      -2.42621672e-06 -1.01505077e-06 -1.29932062e-06 -1.61790558e-06
      -1.44920034e-06 -2.51922393e-06 -1.94880135e-06 -3.58868732e-07
      -1.03593914e-06 -1.04008677e-06 -1.04940295e-06 -8.58176520e-07
      -8.38859307e-07 -7.61629735e-07 -1.01785474e-06 -1.02748322e-06
      -1.10675046e-06 -1.05578920e-06 -8.70420081e-07 -5.24170161e-07
      -2.19916231e-07 -1.30091863e-07 -1.25058506e-08 1.19463394e-07
      2.20255288e-07 4.13688355e-07 5.44798979e-08 3.48797357e-07
      5.64663083e-07 6.93043603e-07 7.73972999e-07 9.20484240e-07
      1.01989053e-06 1.05834840e-06 1.23635220e-06 1.78860375e-06
      2.12409941e-06 2.17568527e-06 2.52893278e-06 2.58051273e-06
      3.19007904e-06 3.69828467e-06 -3.22484652e-06 -9.24158940e-07
      -1.13844760e-06 -1.37218331e-06 -1.25033250e-06 -1.31758623e-06
      -1.40609961e-06 -1.19110166e-06 -1.41860494e-06 -1.78958805e-06
      -1.65799190e-06 -1.57310774e-06 -1.46023922e-06 4.55284999e-06
      4.66976871e-06 4.69849647e-06 3.83523184e-06 3.01142586e-06
      2.91390643e-06 3.18881553e-06 3.68659676e-06 3.82561166e-06
      3.95952884e-06 3.77048718e-06 3.37154461e-06 3.37672327e-06
      3.14305612e-06 2.86312547e-06 2.64743608e-06 2.91906213e-06
      3.01271325e-06 3.06575589e-06 3.09448865e-06 3.12510588e-06
      2.92600748e-06 2.91061747e-06 2.88594242e-06 2.88335900e-06
      8.62622619e-06 8.76338254e-06 8.77030652e-06 9.35617663e-06
      8.97889549e-06 8.35764695e-06 8.81775122e-06 8.99140832e-06
      9.08440961e-06 9.14439988e-06 8.97727659e-06 9.21269202e-06
      1.04850697e-05 1.09652701e-05 1.08314025e-05 1.07190845e-05
      9.34111358e-06 8.07121705e-06 7.30839429e-06 1.09191149e-06
      1.15284456e-06 1.62209858e-06 1.81544488e-06 1.46228231e-07
      2.70401324e-06 3.67220355e-06 2.81530833e-06 2.79530673e-06
      2.28295312e-06 2.37520612e-06 2.44182161e-06 3.15498437e-06
      2.34497429e-06 2.33216610e-06 2.63437460e-06 2.95550649e-06
      -9.31837718e-08 1.31582965e-06 2.22805255e-07 -7.51750662e-08
      3.68949514e-07 8.22934794e-07 6.92228355e-07 8.11070720e-07
      3.45010903e-07 5.28850990e-07 6.14791929e-07 -7.05370383e-07
      4.91496621e-07 1.74314630e-06 2.63387369e-06 2.03776881e-06
      2.50921403e-06 1.62166327e-06 2.30978935e-06 1.72781733e-06
      2.84393377e-06 2.69709062e-06 2.53008739e-06 1.54955762e-06
      2.95587824e-06 2.97281304e-06 3.46389288e-06 2.92696836e-06
      3.11735198e-06 1.44095077e-06 -2.96644373e-07 9.42446121e-08
      -3.69020057e-07 1.83097757e-06 -1.80460127e-08 -1.20446077e-06
      2.14167062e-06 2.70019245e-06 3.47922446e-06 4.21743016e-06
      4.47472758e-06 4.44256330e-06 4.57811529e-06 5.16262753e-06
      5.91864591e-06 4.62723256e-06 5.14419844e-06 5.73364787e-06
      6.89051558e-06 3.43751344e-06 4.46002423e-06 4.37987137e-06
      4.16489229e-06 4.29179772e-06 4.61080799e-06 4.78652328e-06
      4.85880037e-06 5.64299080e-06 5.61535307e-06 4.45442174e-06
      3.54777694e-06 3.40723955e-06 3.29899126e-06 3.19082960e-06
      3.14800650e-06 3.62273158e-06 3.21525727e-06 2.74739909e-06
      2.03207514e-06 1.85701060e-06 1.76986373e-06 1.74521301e-06
      1.58097464e-06 5.79252855e-07 5.26155361e-07 2.60256115e-07
      -1.20549998e-06 9.34902346e-07 2.18777487e-07 -2.21821949e-07
      -6.19414550e-07 1.31885793e-06 1.60768286e-06 2.75634125e-06
      3.74371689e-06 5.16224782e-06 4.75933984e-06 2.28087265e-06
      1.76021013e-06 2.31492595e-06 1.44619958e-06 -1.92776497e-06
      -3.22762799e-06 -3.31849901e-06 -7.82889515e-07 -4.66894704e-07
      1.38759049e-06 1.44803096e-06 2.00900195e-06 2.17736579e-06
      2.48101628e-06 2.54973520e-06 2.17092975e-06 1.89971138e-06
      1.58165813e-06 1.79971778e-06 2.23905681e-06 1.69960845e-06
      1.68544022e-06 1.89255820e-06 2.57101101e-06 2.65784774e-06
      2.13583371e-06 2.09885525e-06 1.78549567e-06 1.64573555e-06
      1.53838755e-06 2.42701140e-06 1.78360324e-06 1.92885273e-06
      2.71140971e-06 2.85668602e-06 2.91319793e-06 2.69963061e-06
      1.77685240e-06 2.05837637e-06 1.45898468e-06 -6.91208299e-07
      2.04400567e-06 1.84343935e-06 1.95878579e-06 1.83012753e-06
      1.53165354e-06 1.62022968e-06 1.43092302e-06 1.69299051e-06
      2.13108478e-06 1.79642007e-06 1.43419595e-06 -6.48234447e-07
      -7.35344315e-07 5.73535708e-08 -1.87987200e-06 4.07989455e-06
      4.01843045e-06 3.71066085e-06 4.60092951e-06 5.02883404e-06
      5.71126429e-06 6.16139278e-06 5.63145795e-06 5.64381162e-06
      5.49090873e-06 6.34295293e-06 6.09983499e-06 6.19839375e-06
      6.31904413e-06 6.37942321e-06 6.38450820e-06 6.37609037e-06
      6.15485305e-06 6.15485305e-06 6.13200018e-06 6.14341343e-06
      8.83147459e-06 9.01677686e-06 9.06488185e-06 9.44557632e-06
      8.59161719e-06 8.53357596e-06 8.91791024e-06 8.80836888e-06
      9.00038231e-06 8.88044360e-06 8.01163878e-06 8.50903962e-06
      9.66935113e-06 1.01889791e-05 9.34535183e-06 9.24865526e-06
      8.50145807e-06 1.63615255e-06 1.94874929e-06 1.06289212e-06
      2.33306173e-06 1.36180233e-06 1.89554657e-06 1.93551500e-06
      1.87280352e-06 1.63299717e-06 1.47463754e-06 1.28789281e-06
      1.74688739e-06 1.50857272e-06 -3.56871851e-07 2.15209170e-07
      8.64041453e-07 2.58861633e-07 -5.57635360e-07 2.92616596e-06
      3.04623313e-06 2.78073912e-06 3.62233686e-06 2.72058264e-06
      2.22567905e-06 2.79105757e-06 2.54913334e-06 2.50997959e-06
      2.47116122e-06 2.13837529e-06 1.92629477e-06 1.68447866e-06
      2.64535356e-06 4.25026974e-06 4.64077448e-06 4.72642796e-06
      4.65390622e-06 3.91021558e-06 3.99508144e-06 3.71646388e-06
      4.06484969e-06 3.75733953e-06 3.13272471e-06 2.29671195e-06
      8.40134021e-07 1.44303920e-06 2.34505956e-06 2.09584800e-06
      2.35339212e-06 3.56960300e-06 2.52688687e-06 2.83538043e-06
      3.76704975e-06 2.40145641e-06 1.57692043e-07 8.43591351e-07
      1.60213835e-06 2.57682609e-06 1.62835227e-06 2.12055784e-06
      2.52298582e-06 1.85090903e-06 1.88931824e-06 2.78812422e-06
      1.23224322e-06 4.61903073e-06 4.75252773e-06 5.02062903e-06
      5.35416439e-06 5.19783953e-06 5.10734935e-06 4.81580037e-06
      4.61055788e-06 4.47901903e-06 4.56168573e-06 4.52212316e-06
      4.38407005e-06 4.36521486e-06 3.84718260e-06 3.41345685e-06
      2.94386359e-06 2.64580194e-06 2.70537885e-06 2.69349243e-06
      2.61921627e-06 2.70716669e-06 2.54957035e-06 1.60065679e-06
      1.74111960e-06 1.63470202e-06 1.86292868e-06 1.94748304e-06
      1.76870174e-06 1.54309669e-06 1.48056893e-06 1.47135313e-06
      1.30597459e-06 5.63499100e-07 2.93332278e-07 -5.83990669e-08
      -2.67037819e-07 -4.33078469e-07 -3.43398341e-07 -2.55716554e-06
      -3.87706024e-07 3.31128831e-06 1.40026611e-06 -1.08986205e-06
      -1.37590382e-06 -2.68536382e-07 9.68791142e-07 8.76656372e-07
      1.62066044e-06 2.89658146e-06 1.74910713e-06 2.06995219e-06
      2.14379179e-06 1.57810257e-06 1.33831895e-06 2.41740918e-06
      2.57099077e-06 2.58914520e-06 2.70190458e-06 2.88391448e-06
      2.73793557e-06 3.08684525e-06 3.29342606e-06 3.12148018e-06
      3.09509596e-06 3.18521097e-06 3.38265659e-06 2.67391829e-06
      3.35830100e-06 4.79473283e-06 4.72318288e-06 4.39960240e-06
      4.21338564e-06 4.15925160e-06 4.00561339e-06 3.93180608e-06
      4.01025136e-06 3.91844378e-06 3.92960283e-06 3.91244612e-06
      3.63613481e-06 3.18983393e-06 2.90986713e-06 2.25346594e-06
      2.11737438e-06 -2.14129670e-07 4.96476900e-07 3.88171372e-07
      -3.90996689e-07 2.19279372e-07 1.89275625e-06 3.99432629e-08
      3.94953474e-07 -1.67899028e-08 -2.99865889e-07 -1.37653683e-06
      -4.17328380e-07 -1.26260863e-06 -1.87855665e-06 -2.96998564e-06
      -1.77157779e-06 -2.33099468e-06 5.62984951e-06 5.84363761e-06
      5.81463337e-06 5.32475951e-06 4.91302853e-06 5.05965181e-06
      5.81781796e-06 5.23565177e-06 5.96570726e-06 6.24966515e-06
      6.32512865e-06 6.38607935e-06 6.37026005e-06 6.37808898e-06
      6.15185581e-06 6.17109754e-06 6.12187159e-06 6.18176682e-06
      8.90986212e-06 9.09349274e-06 9.21850005e-06 9.41745475e-06
      8.07996184e-06 8.19794514e-06 8.30830777e-06 8.24802737e-06
      8.42342070e-06 7.98512065e-06 7.85815428e-06 8.59049669e-06
      8.90295269e-06 9.37513869e-06 9.12420819e-06 8.74466605e-06
      9.01434134e-07 1.35039147e-06 1.06145694e-06 6.66590097e-07
      1.59904209e-06 1.74111324e-06 1.74821889e-06 1.63217805e-06
      1.49733455e-06 1.29669263e-06 1.82134940e-07 2.57159627e-07
      1.30219507e-06 1.94470749e-06 1.72497175e-06 1.78233415e-06
      1.59490844e-06 1.19674587e-06 1.52976281e-06 2.28545719e-06
      1.51601034e-06 2.23906227e-06 1.54762245e-06 -2.62672746e-08
      4.29119979e-07 1.46362638e-07 -1.12420189e-07 -4.60073331e-08
      -7.47422249e-08 3.35643563e-07 1.43860717e-07 7.71699789e-08
      7.67656900e-07 2.17127172e-06 2.51930669e-06 2.51611573e-06
      2.43307068e-06 2.38843404e-06 2.59695025e-06 2.89175136e-06
      2.58788168e-06 1.05567153e-07 -8.79476318e-07 -8.67880829e-07
      -9.16407089e-07 1.37721173e-07 9.69827624e-07 4.31102364e-07
      -1.84521213e-07 1.69791619e-07 -2.83399061e-07 -2.19933941e-06
      -1.42057104e-06 -1.02069475e-06 -1.28792908e-06 -1.33462072e-06
      2.39698898e-06 3.29433192e-06 4.18828995e-06 5.65513938e-06
      6.61992999e-06 6.46328499e-06 6.40535973e-06 6.27314148e-06
      6.29546412e-06 6.47308707e-06 6.43521980e-06 4.72558122e-06
      4.79013579e-06 4.67048812e-06 4.65738049e-06 3.67743041e-06
      4.62052731e-06 3.32923332e-06 2.80369477e-06 4.18986974e-06
      2.33907804e-06 1.72280500e-06 4.74446870e-06 4.54895235e-06
      4.38953111e-06 4.07915104e-06 3.78516938e-06 3.75868422e-06
      3.81748032e-06 4.04073080e-06 3.54816916e-06 2.83356781e-06
      2.43755289e-06 -1.09680127e-06 -7.80178937e-07 -8.19438355e-07
      5.68404666e-08 -9.44565841e-07 1.88800854e-07 -3.75723317e-07
      -5.53391374e-07 -7.37770620e-07 -9.60946636e-07 -4.36187207e-07
      -6.84619863e-07 9.79331048e-07 1.68083204e-07 9.17589773e-07
      2.63341781e-06 5.21489210e-06 3.30755915e-06 1.49498305e-06
      1.38685095e-06 8.98986514e-07 8.36955849e-07 -3.39202575e-06
      -3.42163708e-06 -2.32318030e-06 -2.43408090e-06 -2.38645657e-06
      -1.00131092e-06 -6.29777730e-07 -1.00272382e-06 -6.84852068e-07
      -6.21728873e-07 9.18461865e-07 2.68496791e-07 -1.87648936e-07
      3.49519240e-07 6.83302176e-07 7.90690592e-07 4.07477017e-07
      4.42282328e-07 2.52857535e-06 2.78733000e-06 2.94967981e-06
      3.01652585e-06 3.18832986e-06 3.15909620e-06 2.87424450e-06
      2.53044209e-06 2.40971690e-06 1.00540899e-06 2.52159998e-06
      2.33040123e-06 2.24127234e-06 2.12192140e-06 1.88253875e-06
      1.77888057e-06 1.52640257e-06 1.32982996e-06 1.23173049e-06
      2.40481313e-06 2.42629471e-06 2.41974908e-06 2.26437692e-06
      2.95800504e-07 2.09199879e-06 5.11520568e-07 -8.50319680e-07
      -1.61136109e-06 -1.00723275e-06 6.91313517e-07 1.06444622e-06
      -1.24899236e-06 -1.38417238e-06 -1.80767199e-06 -6.66813321e-07
      -1.81114444e-06 -3.86338343e-06 -2.44742591e-06 -3.06861398e-06
      5.09093479e-06 5.08482663e-06 4.84335442e-06 5.91082198e-06
      4.87728494e-06 4.55285453e-06 4.42252303e-06 5.47815716e-06
      5.60393664e-06 6.17929163e-06 6.21353138e-06 5.94902485e-06
      6.13352086e-06 6.15206591e-06 6.13749216e-06 6.17120213e-06
      8.84807105e-06 8.67694598e-06 8.80048628e-06 8.31698253e-06
      8.25178631e-06 8.73403678e-06 8.17495948e-06 8.39490167e-06
      8.26478026e-06 7.98361452e-06 8.09086123e-06 8.98633607e-06
      9.26519897e-06 9.38815811e-06 -1.02293036e-07 1.26794259e-06
      1.05503955e-06 2.33598553e-06 1.33270646e-06 1.39979966e-06
      1.73227454e-06 1.89099512e-06 1.95562870e-06 -1.15765727e-06
      1.46803714e-07 1.74668310e-06 3.99219289e-06 4.88220803e-06
      4.21566892e-06 2.25302733e-06 3.91129674e-07 -1.84196594e-07
      -7.01732063e-07 5.75922229e-07 1.64458413e-07 2.60130605e-07
      1.30526826e-06 8.85349834e-07 -7.89254955e-08 4.67524501e-07
      2.08609521e-07 -6.30704562e-07 -1.44368835e-06 -3.60987769e-07
      -7.42567977e-07 -1.29814964e-06 -1.85245176e-06 -8.63785885e-07
      2.06814903e-07 1.89601690e-06 2.41119301e-06 1.96187534e-06
      1.91579898e-06 1.99833676e-06 2.11220913e-06 2.34652589e-06
      3.01074778e-07 -8.43873877e-08 5.41716254e-08 7.55521228e-08
      -1.00563580e-06 -8.28498003e-07 -3.20170534e-06 -6.98609540e-07
      -2.13016665e-06 -9.50956633e-07 -3.49226923e-07 -9.24242443e-07
      -5.70453267e-07 -2.57072656e-07 7.46069190e-07 1.24067708e-06
      1.56337524e-06 2.38298094e-06 2.81345956e-06 4.93303151e-06
      5.05292337e-06 4.68239477e-06 4.50239395e-06 4.36774053e-06
      4.69613315e-06 7.76119850e-06 7.84815165e-06 7.88860871e-06
      7.86506098e-06 7.43928422e-06 7.61851379e-06 7.23905168e-06
      7.09658434e-06 6.79749746e-06 6.30222166e-06 6.32574574e-06
      4.29485817e-06 3.70866292e-06 3.57582530e-06 3.57148701e-06
      3.59517549e-06 3.62358628e-06 2.50523181e-06 2.58676914e-06
      2.08700362e-06 2.12389978e-06 2.19553954e-06 1.94082827e-06
      3.74013371e-06 3.32560217e-06 3.40479551e-06 3.35109121e-06
      3.25341693e-06 3.15219722e-06 3.25850215e-06 2.88823821e-06
      2.44753869e-06 2.37761333e-06 2.16582521e-06 1.87788305e-06
      1.72515581e-06 1.57097190e-06 1.55613998e-06 -1.51703239e-06
      -2.39367012e-07 2.14328611e-06 7.28635570e-08 1.22407698e-07
      -5.28703140e-07 -1.07909273e-06 -8.82319398e-07 -1.03643811e-06
      -1.48575248e-06 -1.04890933e-06 -9.52433425e-07 1.57528405e-07
      6.21594154e-08 3.36840685e-07 -4.65867942e-07 -1.20993661e-06
      -8.61460649e-07 -1.42989688e-06 -1.37891948e-06 -1.09461200e-06
      -9.23756772e-07 8.57617465e-07 1.23244513e-06 1.58423211e-06
      1.79959386e-06 1.81787550e-06 2.13723979e-06 2.48683159e-06
      2.77376944e-06 3.02129638e-06 2.95356699e-06 2.93668495e-06
      2.97333327e-06 1.85470230e-06 1.60098250e-06 1.58759349e-06
      1.42028330e-06 1.23980874e-06 9.94411266e-07 7.75278011e-07
      4.84802399e-07 4.73532083e-07 6.00934300e-07 1.40598547e-06
      1.25582301e-06 -5.85937471e-07 -8.27867723e-07 -1.25322856e-06
      -1.33938431e-06 -1.27395106e-06 9.70524979e-07 2.69001885e-06
      1.26398822e-06 1.52395569e-06 3.93882999e-07 -2.79276577e-07
      -1.34683228e-06 8.91436571e-07 1.35766174e-06 -9.97872078e-08
      -1.46029083e-06 1.38614894e-07 -3.95116416e-07 7.80063260e-07
      -1.59384695e-06 4.71704880e-06 4.48917672e-06 4.86131785e-06
      4.69848919e-06 4.59975990e-06 4.93022617e-06 6.30893010e-06
      5.78097251e-06 5.79712196e-06 5.69784970e-06 5.49551169e-06
      5.99439500e-06 5.97412554e-06 6.13551174e-06 6.18096510e-06
      8.59729244e-06 8.77001094e-06 8.83395569e-06 7.92010360e-06
      8.43442012e-06 8.77099865e-06 8.54044265e-06 8.70704753e-06
      4.08373808e-06 3.91861977e-06 4.00042472e-06 4.39942414e-06
      5.14242856e-06 4.26851011e-06 -2.63923903e-06 -3.34065794e-06
      -3.05379012e-06 -2.39965243e-06 -2.64966320e-06 -1.43012949e-06
      -6.31549142e-07 -2.24615087e-06 -1.10629776e-06 1.66342977e-06
      2.03151080e-06 -1.36907704e-06 2.77843782e-07 1.42437329e-06
      1.55731004e-06 8.85747170e-07 -5.24256507e-07 -7.82647646e-07
      -2.38462758e-06 -2.40640179e-06 -2.52198947e-06 -2.75265961e-06
      1.20594359e-06 1.52905699e-07 -1.17133141e-06 -2.44729313e-06
      -2.06801064e-06 -7.09085271e-07 -4.02345989e-07 -8.18434813e-08
      -1.97258692e-06 -2.55687087e-06 -2.32642287e-06 -2.51204824e-06
      -1.32318985e-06 9.43430223e-07 1.72018110e-06 1.59941965e-06
      1.51232666e-06 2.39664502e-07 -1.82418216e-06 -7.33673033e-08
      3.86867384e-07 -9.78701564e-07 -1.80847891e-07 8.02773627e-07
      2.59297593e-07 2.03653190e-06 -1.28387944e-06 -1.98605721e-06
      -2.15369460e-06 -1.00888360e-06 -5.57385420e-07 6.33015986e-07
      1.00335126e-06 1.76382900e-06 2.32351385e-06 2.34538243e-06
      3.13678447e-06 3.13712076e-06 5.16938644e-06 5.58949750e-06
      6.51866594e-06 5.93988307e-06 7.71401392e-06 7.47472268e-06
      7.29799967e-06 7.17865760e-06 7.44443287e-06 7.57173029e-06
      7.36224911e-06 7.28538043e-06 7.13394184e-06 7.27600809e-06
      6.85822488e-06 7.01038471e-06 6.43537260e-06 5.74338583e-06
      5.16282853e-06 4.63980814e-06 7.27407632e-06 7.22734194e-06
      7.15732813e-06 7.24265146e-06 7.56493318e-06 5.31751493e-06
      5.14379644e-06 4.97747033e-06 4.93646121e-06 4.87182888e-06
      4.26608221e-06 3.97951271e-06 4.03434314e-07 -9.85559296e-08
      -5.86706335e-07 -7.55310680e-07 -5.24671123e-07 -3.29713998e-07
      -2.16797332e-07 -3.06655153e-07 -2.32570400e-07 7.66670709e-08
      4.24620168e-07 -1.47737651e-07 -4.62050963e-07 -1.88580103e-07
      5.79744324e-07 8.12092011e-08 -1.30084447e-06 -6.20257936e-07
      -3.66343329e-07 -1.09753569e-06 -1.45087574e-06 -2.18276818e-06
      -3.16102478e-06 -3.47445143e-06 -1.15885018e-06 6.02107608e-09
      -7.67275878e-07 -1.70289900e-06 -4.67084845e-07 -2.03447584e-07
      -2.69492261e-07 -2.43607502e-07 -3.87123663e-07 -4.12018920e-07
      -1.00640092e-08 1.80812549e-07 4.38357887e-07 6.98809913e-07
      8.89898388e-07 1.09705149e-06 1.96048313e-06 2.16559283e-06
      5.93852974e-07 3.01125988e-06 -1.20384115e-07 -1.05925130e-06
      -1.13753390e-06 -6.61717593e-07 -8.03730074e-07 -1.05235858e-06
      -4.65750691e-06 -5.05077014e-06 -5.24696634e-06 -5.88665171e-06
      -4.02883597e-06 -5.05655316e-06 -5.11393728e-06 -5.65396931e-06
      -5.06404785e-06 -5.68095948e-06 -5.84172449e-06 -6.39821383e-06
      -6.01128886e-06 -6.36159393e-06 -5.81393169e-06 -3.77362176e-06
      -4.16359171e-06 -6.35288734e-06 -2.62523690e-06 -3.18601019e-06
      -2.74189824e-06 -4.41822067e-06 -5.68703899e-06 -4.08991764e-06
      -5.03816455e-06 -6.20496712e-06 -6.59321540e-06 -3.30480657e-06
      -6.61070135e-06 -5.94961739e-06 5.68483131e-07 1.79794029e-06
      1.72152829e-06 4.36710434e-06 3.96800306e-06 3.94643439e-06
      5.80948790e-06 5.85856196e-06 5.66840117e-06 5.75572722e-06
      5.66055769e-06 5.46779302e-06 5.54714552e-06 6.21594472e-06
      8.58486510e-06 8.74363377e-06 8.43211274e-06 8.10266920e-06
      8.63980677e-06 8.76618924e-06 7.43586634e-06 6.56700240e-06
      7.00857936e-06 5.78666777e-06 5.66971448e-06 8.84289329e-06
      5.41065947e-06 -3.31749789e-06 -2.91120023e-06 -5.02811372e-06
      -2.87601642e-06 -2.43208410e-06 -1.31307206e-06 -2.85368924e-06
      1.13283215e-06 -6.71749262e-07 -7.48405569e-07 -8.09834148e-07
      -3.18974088e-07 -4.01177158e-06 -2.97794054e-06 -2.63320862e-06
      -2.18223386e-06 -2.66009010e-06 -3.57166505e-06 -2.63027437e-06
      -3.12911015e-06 -9.14269407e-08 9.96480409e-08 -1.55121128e-07
      1.10451185e-06 -6.87033150e-07 -1.16548154e-06 -1.26129692e-06
      -2.34458048e-06 -2.73428623e-06 -1.15385728e-06 -2.64765799e-06
      -7.25834070e-07 -1.38478913e-06 -2.36453047e-06 -1.64328458e-06
      -8.22625339e-07 -9.15889473e-07 1.35587322e-06 1.94513404e-06
      1.92204038e-06 4.34374471e-07 5.78033337e-07 1.64816504e-06
      -6.74104797e-07 -4.86397653e-07 5.94973869e-07 -2.93408038e-06
      7.05773857e-07 6.46047170e-07 -2.02008309e-07 -5.71768965e-07
      2.26765504e-08 8.15831697e-07 1.35360256e-06 3.04591663e-06
      3.92240418e-06 4.44219950e-06 4.49865956e-06 3.96670839e-06
      3.50747450e-06 2.82331780e-06 2.32881166e-06 5.24808638e-06
      6.97020141e-06 6.94956498e-06 7.50847175e-06 6.71042790e-06
      7.17272633e-06 6.75071442e-06 6.51197934e-06 6.19506909e-06
      8.24876770e-06 8.61548142e-06 8.74002126e-06 9.68121367e-06
      9.70553992e-06 7.96149743e-06 7.38091057e-06 6.37142648e-06
      5.44316572e-06 5.15754937e-06 5.01214072e-06 4.89791046e-06
      5.02804824e-06 4.45035994e-06 4.20313654e-06 3.83603674e-06
      3.55582642e-06 2.98273926e-06 3.04326045e-06 2.63945935e-06
      2.90259595e-06 2.58507157e-06 2.59577496e-06 2.47075968e-06
      2.55532632e-06 2.50522908e-06 2.42365695e-06 2.38712460e-06
      2.38257871e-06 2.30822570e-06 1.95422990e-06 1.72329578e-06
      2.07413404e-06 1.93520168e-06 1.75076491e-06 2.38661460e-06
      9.55689302e-07 -1.52128521e-07 -4.24669082e-07 1.74262880e-07
      -3.13697251e-06 -2.30069600e-06 -2.33486799e-06 -2.06287473e-06
      -2.21210166e-06 -1.99059241e-06 -1.72996420e-06 -9.31238105e-07
      -7.70158579e-07 -9.94732773e-07 -1.10763858e-06 -5.27843042e-07
      -1.58774310e-06 1.96263642e-07 5.54353051e-07 1.23157008e-06
      8.36831703e-07 6.96981203e-07 9.26621055e-07 -2.31535591e-06
      -2.17373508e-06 -1.54827148e-06 -1.48918411e-06 -7.01857857e-07
      -2.47848288e-06 -2.27175087e-06 -2.71327758e-06 -1.94307654e-06
      -1.34504285e-06 -1.79859182e-06 -7.04654099e-07 -5.29563840e-06
      -5.41398231e-06 -6.31596868e-06 -6.34543721e-06 -5.85959287e-06
      -5.87132718e-06 -6.25889606e-06 -6.26088240e-06 -5.37425876e-06
      -5.94570565e-06 -6.00515659e-06 -7.11138773e-06 -5.75924105e-06
      -6.47795014e-06 -6.60203204e-06 -6.43143312e-06 -4.99942871e-06
      -5.34919764e-06 -6.60342675e-06 -5.18521119e-06 -6.31374223e-06
      -5.52109805e-06 -3.34833976e-06 -5.06229890e-06 -7.77176774e-06
      -7.23581979e-06 -6.05478681e-06 -3.91118829e-06 -5.10217433e-06
      -5.77927585e-06 -7.71814211e-06 -7.43581404e-06 3.70253979e-08
      -3.88183963e-07 -3.59530276e-07 8.90554048e-08 3.96458091e-07
      2.84120506e-06 2.56383646e-06 6.02039063e-06 5.71013561e-06
      5.66180142e-06 6.03750277e-06 5.44813474e-06 6.06427784e-06
      8.00440466e-06 8.76608374e-06 8.17437376e-06 8.41671681e-06
      8.89174498e-06 6.48497416e-06 5.98627639e-06 7.26274766e-06
      6.80232097e-06 5.71134342e-06 4.17994715e-06 5.20814547e-06
      4.56148808e-09 -2.48175047e-06 -9.35388073e-07 -3.15843090e-06
      -2.01177613e-06 -1.37443328e-06 -3.39233861e-06 -1.68275835e-06
      -9.77005357e-07 -3.96840096e-06 -3.15437910e-06 -2.60044931e-06
      -1.55890109e-06 -1.98385897e-06 3.96777523e-07 1.32654770e-06
      1.73764602e-06 1.58356420e-06 6.67170639e-07 9.37851325e-07
      1.89166235e-06 1.13285046e-06 1.25370036e-06 1.67209180e-06
      3.03551928e-06 2.25940880e-06 9.00855582e-07 2.08796877e-07
      -1.23333746e-06 1.20424534e-06 7.81649703e-07 -2.68702109e-07
      -1.37513973e-06 -2.11516590e-06 -2.36139294e-06 -7.36512561e-07
      -9.56220788e-07 -9.04954618e-07 -1.22080598e-06 2.37354087e-07
      -2.65739033e-07 3.69765246e-07 2.96200767e-07 -5.51790169e-09
      -1.50293999e-06 5.22525625e-07 -1.27054307e-07 9.16465297e-07
      5.79892912e-07 2.82637188e-07 -1.37241784e-07 2.11030738e-07
      7.42688428e-07 1.33228048e-06 2.18242849e-06 2.80653899e-06
      4.80783865e-06 5.64539550e-06 5.72032422e-06 5.47461923e-06
      4.51187134e-06 4.22961830e-06 4.64818186e-06 5.40213750e-06
      4.97267911e-06 4.55032341e-06 7.63031767e-06 6.83122607e-06
      5.07754930e-06 3.19193509e-06 3.44488876e-06 4.32367051e-06
      4.36121081e-06 6.12509803e-06 6.69961491e-06 7.62308446e-06
      7.94909283e-06 8.17570890e-06 8.50297965e-06 7.64316610e-06
      6.01432339e-06 5.69087069e-06 5.63805224e-06 5.75494551e-06
      5.91735306e-06 7.25045038e-06 4.42705277e-06 4.14075748e-06
      4.07694097e-06 3.65190704e-06 3.63075651e-06 3.17884542e-06
      2.90467551e-06 2.43871932e-06 2.62470598e-06 2.57952888e-06
      2.96816233e-06 2.70505529e-06 2.66140864e-06 2.60218530e-06
      2.63223433e-06 2.33269202e-06 1.58241176e-06 1.79603305e-07
      9.66079142e-07 -2.94074397e-07 -7.32414549e-07 -7.37123344e-07
      -5.08653955e-07 -2.39820281e-07 -2.66187863e-06 -1.78302469e-06
      -1.47263836e-06 -8.93795630e-07 1.51410138e-08 -4.18474393e-08
      -5.55218548e-07 -5.61197908e-07 1.64402206e-06 1.51238237e-06
      1.08384472e-06 1.03062337e-06 -2.11450492e-06 -2.87057560e-06
      -3.29435693e-06 -3.72689465e-06 -3.42577800e-06 -3.37612482e-06
      -2.23849588e-06 -1.85344265e-06 -1.98642692e-06 -1.52468465e-06
      -7.28300165e-07 -3.62943092e-06 -1.44152330e-06 -1.44403202e-06
      -1.79867652e-06 -1.91203139e-06 -1.87795763e-06 -2.04916796e-06
      -1.81204462e-06 -1.91331674e-06 -2.03096693e-06 -2.07126936e-06
      -2.15850037e-06 -2.46903187e-06 -4.88723299e-06 -4.40030908e-06
      -3.57705653e-06 -3.66178688e-06 -3.73195235e-06 -3.64122889e-06
      -3.24314146e-06 -3.56835267e-06 -3.46214529e-06 -3.46420757e-06
      -3.97759368e-06 -4.06096842e-06 -4.62165281e-06 -3.39559051e-06
      -4.48049559e-06 -4.72839611e-06 -5.37255437e-06 -5.07415825e-06
      -4.67753716e-06 -6.72210945e-06 -7.54774192e-06 -4.89154218e-06
      -4.78721495e-06 -8.68751522e-06 -4.36143455e-06 -4.72176225e-06
      -6.98400936e-06 -7.04592867e-06 -7.91167349e-06 -8.44182523e-06
      -3.52625989e-07 -2.56185189e-07 -1.81429996e-07 1.29233808e-06
      1.96767110e-06 2.23472102e-06 1.74420143e-06 2.71192994e-06
      5.80455708e-06 5.65647633e-06 5.69248914e-06 5.53607879e-06
      7.88213038e-06 8.28691100e-06 7.65215191e-06 8.38256165e-06
      8.68311872e-06 7.29265912e-06 7.58746683e-06 7.21494871e-06
      7.62760874e-06 7.30311103e-06 6.20629544e-06 6.61363083e-06
      -1.88339538e-06 3.44564796e-07 -1.82961821e-06 -1.52340795e-06
      -4.11134636e-07 -2.12460623e-06 1.60814511e-06 -1.24287885e-06
      -3.25360634e-06 -2.37520931e-06 -1.55641612e-06 -1.05166714e-06
      3.83958593e-07 1.05768561e-06 1.90922924e-06 2.29839816e-06
      2.23998632e-06 2.06554319e-06 2.27466671e-06 2.62880212e-06
      2.82951828e-06 2.85023384e-06 2.97838551e-06 3.03462957e-06
      3.85382873e-06 2.82497376e-06 1.79260292e-06 1.40074496e-06
      1.10339056e-06 1.17352477e-06 1.64790060e-06 1.01095463e-06
      -3.54947616e-07 -1.59293268e-06 -1.42953422e-06 -1.19890694e-06
      -1.67433981e-07 1.00115557e-07 4.00580063e-07 1.24765398e-08
      3.63160915e-08 2.18563816e-08 -1.18039725e-06 -1.33006426e-06
      -1.78449784e-06 -2.43605132e-06 -1.43400985e-06 -8.92230105e-07
      -7.23376729e-07 -6.47411298e-07 -3.47400430e-07 -3.89483347e-07
      2.07450785e-06 1.89758566e-06 2.50247399e-06 2.49155801e-06
      2.32425509e-06 2.51011124e-06 2.23063716e-06 1.52759048e-06
      4.62891057e-06 5.10001064e-06 5.78658273e-06 6.03878698e-06
      5.87817340e-06 4.26303905e-06 4.46684408e-06 3.50360733e-06
      4.81837606e-06 3.99067721e-06 2.55759028e-06 2.44576881e-06
      3.42829139e-06 3.09952406e-06 3.64463199e-06 5.30717762e-06
      4.32747811e-06 7.89616388e-06 8.03082366e-06 7.66302674e-06
      6.92035019e-06 6.62507409e-06 6.50651555e-06 6.35189326e-06
      6.81183246e-06 7.07425579e-06 7.07857953e-06 6.93215088e-06
      6.34928665e-06 6.02950558e-06 5.71800774e-06 5.15099009e-06
      4.78043921e-06 4.15516206e-06 3.73008174e-06 3.34390279e-06
      3.17284707e-06 3.16948285e-06 3.50181745e-06 2.64517155e-07
      1.34236200e-06 9.73088959e-07 8.45312968e-07 -7.41956569e-07
      -9.26129815e-07 -6.06599940e-07 -4.24470329e-07 -1.23182895e-06
      -2.78420021e-06 -2.10967642e-06 -1.39208623e-06 -4.63870236e-07
      -1.90517042e-07 4.80083656e-07 8.48844593e-07 2.25699154e-07
      -3.13432658e-08 1.68385981e-07 -2.75582261e-06 -2.62663252e-06
      -2.57067177e-06 -2.11585325e-06 -1.71844601e-06 -1.23342062e-07
      -1.03125615e-06 2.46449531e-07 -4.18323862e-06 -3.18323418e-06
      -2.28321164e-06 -1.88523438e-06 -1.91068671e-06 -1.43419470e-06
      -9.97269581e-07 -7.83100518e-07 -1.87669656e-07 -6.90496506e-07
      -9.34238855e-08 -3.39288647e-07 -5.46750130e-07 -5.43706335e-07
      -1.86073279e-07 -3.23548306e-07 -5.39885093e-07 -8.54391487e-07
      -9.19490446e-07 -1.02885531e-06 -7.33293916e-07 -3.66638602e-07
      -2.82013019e-07 -1.56225468e-07 -2.31519650e-07 8.28605167e-08
      3.86668233e-07 1.10602748e-07 6.81138772e-07 -3.19655925e-07
      -1.00508953e-06 -1.50684855e-06 -2.32795651e-06 -3.09143979e-06
      -3.39259327e-06 -3.92383936e-06 -4.02124988e-06 -4.40164331e-06
      -5.07440427e-06 -5.45986632e-06 -4.42308783e-06 -3.51006156e-06
      -4.92947629e-06 -4.43846466e-06 -7.14289990e-06 -4.96895655e-06
      -8.21639514e-06 -7.04950162e-06 -6.92064077e-06 -4.38882262e-06
      2.43340793e-07 -3.26643544e-07 -1.62115612e-07 5.75483172e-09
      2.35673656e-06 2.71669342e-06 2.17127740e-06 1.75884452e-06
      5.91044954e-06 5.79109383e-06 5.45438343e-06 5.50851837e-06
      7.66145513e-06 7.70263978e-06 7.51180642e-06 8.42005011e-06
      6.92448248e-06 6.87901866e-06 6.73665500e-06 7.46656406e-06
      7.85857901e-06 7.87769113e-06 7.51790549e-06 4.79282278e-07
      -2.04254640e-08 7.41896770e-07 -2.22114906e-07 9.55898940e-07
      -3.02555895e-06 9.44866315e-07 -5.38082134e-07 -4.37240743e-07
      -1.90778849e-07 7.30254499e-07 2.37487643e-06 2.97785436e-06
      3.47741434e-06 3.20136292e-06 3.25935730e-06 2.83705913e-06
      2.67053224e-06 2.83714076e-06 2.82034898e-06 2.82136170e-06
      2.71232193e-06 2.37395625e-06 2.21252662e-06 1.80264453e-06
      2.34921708e-06 1.33145863e-06 2.95835747e-07 -4.72006832e-07
      -7.70413862e-07 -5.22101004e-07 -7.30320266e-08 5.41158300e-08
      -5.43559906e-07 -1.30506646e-06 -2.32905313e-06 -1.91511276e-06
      -8.33344984e-07 -1.01835333e-07 9.50583740e-07 -1.43207501e-06
      1.80074596e-06 1.24452731e-06 1.05232186e-06 4.93549983e-08
      -8.61844285e-07 -2.80150459e-07 -1.05307876e-07 -6.88799631e-08
      -3.65612294e-07 -1.07553683e-06 -4.64848455e-07 -8.67815402e-08
      5.39897940e-07 1.25291581e-06 1.36610163e-06 1.24697544e-06
      1.07060032e-06 1.02020624e-06 3.70960083e-06 2.04194953e-06
      1.67499752e-06 1.57603586e-06 1.69160899e-06 1.85004546e-06
      1.49641107e-06 1.52723737e-06 1.65398114e-06 2.15603137e-07
      1.16556592e-07 2.48713877e-06 3.36182825e-06 3.19367246e-06
      2.65659583e-06 5.21377342e-06 5.67954203e-06 6.12861913e-06
      7.96141194e-06 8.06778553e-06 7.85058455e-06 6.66785991e-06
      5.50183177e-06 5.17003764e-06 5.00330043e-06 4.66420806e-06
      4.70948999e-06 5.11039889e-06 6.06324284e-06 5.98132056e-06
      4.33457353e-06 4.12693680e-06 3.01042087e-06 2.46493960e-06
      2.15371892e-06 1.26177724e-06 6.44887564e-07 -3.72707888e-07
      -6.40873054e-07 1.48942479e-06 1.50125391e-06 1.13784449e-06
      1.22992196e-06 9.57085831e-07 -7.16072464e-07 -2.93419271e-06
      -8.63951641e-07 -4.50249416e-07 -2.47180310e-06 -1.73145736e-06
      -9.86947157e-07 9.73186953e-09 -2.94877736e-06 -3.62260039e-06
      -3.00552597e-06 -2.17874549e-06 -1.89205059e-06 -2.03214768e-06
      -1.93551159e-06 -1.37018355e-06 -5.06934157e-07 6.89198941e-07
      -3.52056486e-06 -2.33286573e-06 -1.41765418e-06 -1.25585427e-06
      -1.26926716e-06 -1.29443276e-06 -1.36122571e-06 -1.84079192e-06
      -9.53559663e-07 -2.73862412e-07 -1.95051641e-07 3.76839068e-07
      8.06638184e-07 9.59052159e-07 1.42677288e-06 1.41757073e-06
      1.31896434e-06 1.51791028e-06 1.70992473e-06 9.93030653e-07
      1.03733646e-06 1.02650495e-06 1.06050163e-06 9.17936404e-07
      6.26189717e-07 3.48605312e-07 4.46821048e-07 6.75900935e-07
      7.86818248e-07 6.29544729e-07 7.50419304e-07 1.11915699e-06
      1.62275705e-06 1.87204535e-06 8.76818376e-07 1.45278295e-06
      1.04070068e-06 1.01547676e-06 -1.66365950e-07 -5.29512420e-07
      -9.28471593e-07 -1.48401216e-06 -1.89835816e-06 -2.11532915e-06
      4.01705194e-07 1.73914509e-06 1.20490927e-06 2.19019469e-07
      -5.35051612e-08 -2.01280272e-06 -2.61944433e-06 -5.97178041e-06
      -4.76314290e-06 -5.86704846e-06 -6.93981701e-06 -7.42976727e-06
      -7.54225357e-06 2.10884338e-07 2.27438107e-07 5.13244949e-08
      1.90417200e-06 2.03858599e-06 2.81763505e-06 2.01762577e-06
      2.20903962e-06 5.01093746e-06 5.46335605e-06 5.73681609e-06
      7.48221782e-06 7.52415872e-06 7.84502572e-06 8.40010034e-06
      6.58789668e-06 7.56394093e-06 7.27358156e-06 7.79183028e-06
      8.24673225e-06 7.18608453e-06 6.79181358e-06 -1.08066104e-06
      1.56375222e-06 7.49689434e-07 -7.56321356e-07 -1.44393050e-06
      1.40342001e-06 -4.65800923e-07 -2.59284320e-07 5.23503957e-07
      1.78992536e-06 2.82762699e-06 2.84148132e-06 2.84712814e-06
      2.40484860e-06 1.88438264e-06 1.92556308e-06 1.96214864e-06
      1.69417581e-06 1.85545434e-06 1.73919454e-06 1.89447258e-06
      2.00197269e-06 1.95926168e-06 1.74214085e-06 2.51670713e-06
      1.55597104e-06 5.67991549e-07 -2.85568802e-07 -8.65223626e-07
      -1.42532645e-06 -1.32574769e-06 -1.21665460e-06 -1.83815735e-06
      -3.97754002e-06 -4.42700775e-06 -3.98828570e-06 -3.59663272e-06
      -3.01980572e-06 -1.63752372e-06 -7.20906542e-07 -4.89946842e-07
      1.26876685e-07 4.56510236e-07 2.16088537e-07 2.89146755e-07
      1.62394812e-07 -2.77451875e-07 2.03639772e-07 3.30274190e-07
      6.19726563e-07 -5.41267227e-08 1.40299881e-06 -1.98552897e-07
      3.12205401e-07 3.80808501e-07 2.79214532e-07 1.88291153e-07
      -2.30307847e-07 -1.03188881e-06 1.89730463e-06 2.05596029e-06
      5.86927797e-07 1.28712898e-07 5.10270695e-07 -2.54848898e-09
      -1.38245548e-06 3.92033598e-06 1.74094782e-06 2.96958234e-07
      -8.78553294e-07 -9.30778640e-07 -1.10056448e-07 -3.77992660e-06
      -1.09492885e-06 -2.98827899e-06 3.52275197e-06 4.27521218e-06
      5.03909769e-06 5.68306587e-06 7.04427475e-06 7.46431851e-06
      7.30580177e-06 6.44371676e-06 4.14752503e-06 3.76211324e-06
      3.90491141e-06 4.06331355e-06 4.46019931e-06 4.48828678e-06
      4.11991505e-06 3.86578813e-06 3.67743064e-06 3.42527119e-06
      4.09890617e-06 2.20101538e-06 1.40218549e-06 1.15764237e-06
      8.14113548e-07 2.59597300e-07 4.02640921e-07 -2.27448083e-07
      3.74404010e-07 -2.10481721e-06 -2.10543567e-06 -2.16329659e-06
      -4.00286854e-06 -5.57048588e-06 -4.76303057e-06 -4.77627555e-06
      -4.86747695e-06 -3.71333522e-06 -3.51897052e-06 -2.33913056e-06
      -7.58254203e-07 7.42378859e-07 -2.72704369e-06 -3.08045037e-06
      -2.51513757e-06 -2.05208698e-06 -1.42847466e-06 -1.26943200e-06
      -1.11409690e-06 -9.37475136e-07 -2.50951700e-07 -1.67902439e-08
      -1.34728310e-07 -5.52536790e-08 2.73109919e-07 5.92759648e-07
      9.50297760e-07 1.42112299e-06 1.83501982e-06 2.16303260e-06
      2.81854818e-06 3.07281539e-06 3.27299608e-06 3.07512573e-06
      2.68068061e-06 2.15510363e-06 1.72818648e-06 1.14957754e-06
      8.71704174e-07 7.15645967e-07 8.32390072e-07 1.00691727e-06
      5.96749430e-07 -2.36555721e-07 3.02170378e-07 3.24418750e-07
      5.88562273e-07 3.53877169e-07 4.15959249e-07 1.07720541e-06
      1.89210209e-06 1.82063491e-06 6.57564726e-07 1.12172063e-06
      1.03671266e-06 5.43422686e-07 -2.71467968e-07 -4.56728998e-07
      -3.26222533e-07 -6.17995568e-07 -6.65400933e-07 2.21867913e-06
      4.00008457e-06 2.92553523e-06 1.78553296e-06 6.70328859e-07
      -5.86289104e-07 -6.14692169e-07 -2.26528414e-06 -4.52582526e-06
      -7.12280416e-06 -5.37606320e-06 -6.80255607e-06 -1.00340994e-05
      -8.23852861e-06 -9.64332139e-06 3.43564501e-08 3.83167617e-07
      1.94103359e-06 1.86206341e-06 1.97552890e-06 5.88913872e-06
      1.69419002e-06 1.43015609e-06 5.00571468e-06 5.00586884e-06
      7.37270420e-06 7.44555109e-06 8.22723996e-06 6.34943444e-06
      6.88956925e-06 6.69619476e-06 7.51321431e-06 8.34367165e-06
      8.72250166e-06 7.46053456e-06 5.51746371e-06 1.31220804e-06
      1.08795837e-06 3.93500443e-07 -1.33501351e-06 1.75919979e-06
      -5.58404736e-07 -4.32462173e-07 4.39155599e-07 1.10281030e-06
      2.12649707e-06 2.66074471e-06 2.63503853e-06 3.08001586e-06
      3.08625999e-06 3.03975230e-06 2.90801017e-06 2.93995799e-06
      2.84451039e-06 3.23821928e-06 3.26990994e-06 3.29600948e-06
      3.37206097e-06 3.25734368e-06 1.72932027e-06 1.07343487e-06
      2.92398852e-08 -5.79798893e-07 -1.20777725e-06 -1.44187152e-06
      -1.65156428e-06 -1.22199162e-06 -1.18812852e-06 -3.42657972e-06
      -4.01689022e-06 -4.01004218e-06 -2.98796340e-06 -2.29245484e-06
      -2.80415611e-06 -2.62551634e-06 -2.20956304e-06 -1.16667184e-06
      -3.07809671e-08 -4.04294610e-07 -2.43709451e-06 -2.97200609e-06
      -3.48210119e-06 -3.84555506e-06 -3.42005956e-06 -2.31929448e-06
      -1.97819122e-06 -9.23823961e-07 -9.64736628e-08 2.35646624e-07
      1.80613654e-06 2.36228334e-06 2.33777632e-06 2.26264478e-06
      2.19975027e-06 1.99867486e-06 2.00720092e-06 1.90384299e-06
      1.44737544e-06 2.09099781e-07 3.10067691e-07 1.47807145e-06
      1.14129102e-06 4.47240808e-07 3.73300963e-08 -8.58991882e-07
      -5.80290191e-07 -7.82663733e-07 -2.31464946e-06 5.76422565e-07
      -2.94271922e-06 1.75248124e-06 1.80475342e-06 1.41357725e-06
      3.75567720e-06 3.66457539e-06 2.95940072e-06 3.34465426e-06
      3.87755972e-06 3.33846947e-06 2.00392401e-06 1.45491515e-06
      1.07094479e-06 3.24435837e-06 3.04514765e-06 4.02811747e-06
      2.36386677e-06 3.77487345e-06 9.35791093e-07 7.50403274e-07
      6.17145986e-07 1.68147558e-08 -1.26962289e-06 -2.00894624e-06
      -2.76381957e-06 -3.02614785e-06 -3.34146648e-06 -2.95111749e-06
      -4.42185274e-06 -3.27437033e-06 -6.68088978e-06 -4.52355562e-06
      -3.38710106e-06 -2.78064135e-06 -2.62459162e-06 -7.86180135e-06
      -6.32054844e-06 -5.23811059e-06 -4.95050153e-06 -4.40819849e-06
      -3.08594849e-06 -2.53791768e-06 -2.02197339e-06 -2.79268943e-06
      -8.60909211e-07 -5.05183493e-07 -8.26709297e-08 -2.19226564e-07
      -1.32130751e-07 6.13412254e-08 6.45965258e-07 5.61581601e-07
      7.01776855e-07 7.03644446e-07 8.81004439e-07 1.22840390e-06
      1.77284119e-06 1.91774666e-06 2.09580867e-06 2.08970414e-06
      2.74784429e-06 3.21395646e-06 3.24054690e-06 2.97713632e-06
      2.47960611e-06 1.86359057e-06 1.47004653e-06 9.27136227e-07
      6.31649812e-07 7.51246773e-07 1.05487072e-06 1.05634808e-06
      1.05453762e-06 6.96839550e-07 1.20784341e-06 1.03646164e-06
      1.07156689e-06 1.08849372e-06 9.93300205e-07 1.81800453e-06
      2.21726577e-06 2.08888559e-06 1.69108046e-06 1.95564235e-06
      2.02355341e-06 1.84647195e-06 1.29852458e-06 1.25079805e-06
      1.21190340e-06 1.06061623e-06 2.08623874e-06 6.27068266e-06
      5.89893807e-06 4.38486222e-06 4.40466920e-06 1.36517281e-06
      -2.46909792e-07 -1.36618894e-06 -1.67466669e-06 -5.51023777e-06
      -5.66085737e-06 -7.69551298e-06 -8.61537319e-06 -7.65914046e-06
      -7.02333273e-06 -7.08105927e-06 -1.05084086e-06 1.16550132e-06
      2.55896498e-06 2.24259134e-06 1.91564391e-06 1.90015305e-06
      1.83357531e-06 1.78296818e-06 5.04857553e-06 5.01256591e-06
      7.00332203e-06 7.38157814e-06 8.53995880e-06 5.51514267e-06
      7.06077572e-06 7.04975400e-06 7.82379084e-06 8.54784503e-06
      8.74061971e-06 7.68564587e-06 -1.42041256e-06 1.18934304e-06
      9.60807711e-07 -1.27779469e-06 1.29619195e-06 -2.50391878e-07
      -5.92333834e-07 2.86393117e-07 9.84611802e-07 2.30974683e-06
      3.09638767e-06 3.36538642e-06 3.36244625e-06 3.18685625e-06
      3.34248625e-06 3.23471295e-06 3.17133936e-06 3.18228035e-06
      3.00968804e-06 3.22491951e-06 3.31002070e-06 3.25254450e-06
      3.43273268e-06 3.04168884e-06 8.04874844e-07 -1.63155633e-07
      -1.29404327e-06 -1.75426987e-06 -2.38132543e-06 -2.70358646e-06
      -3.89983416e-06 -3.43908255e-06 -3.99403643e-06 -5.92524430e-06
      -6.58336921e-06 -6.59749003e-06 -5.81429458e-06 -5.49837023e-06
      -5.17502895e-06 -4.69472025e-06 -3.81411633e-06 -3.78375239e-06
      -3.13659802e-06 -1.87737521e-06 -8.67951485e-07 -9.23491086e-07
      -1.87712601e-06 -1.43021555e-06 -1.98610746e-06 -1.90860533e-06
      -1.43561329e-06 -1.22115216e-06 2.95753011e-07 1.39682174e-06
      -7.76810509e-07 1.20383561e-07 7.65400671e-07 1.31364936e-06
      1.69669579e-06 2.17409706e-06 3.19203423e-06 3.21167840e-06
      3.30755165e-06 2.58494856e-06 2.69345583e-06 2.82852193e-06
      2.17456363e-06 1.54790052e-06 1.16754791e-06 9.23632570e-07
      4.79033304e-07 8.90272531e-07 3.63065112e-07 2.72793756e-07
      5.58104460e-08 -1.20448999e-06 -2.70169721e-06 5.94672144e-07
      -2.27040732e-06 1.35282357e-06 5.45765317e-07 4.88486830e-06
      4.08923688e-06 3.07864411e-06 2.10391386e-06 1.38702194e-06
      7.30437705e-07 8.50769197e-07 5.15933721e-07 1.52212280e-07
      -4.10330244e-07 -4.66781728e-07 -5.03696697e-07 -8.06729645e-07
      -1.03061802e-06 -1.56315343e-06 -6.48686580e-07 -1.50898666e-06
      -2.10499434e-06 -1.46647290e-06 -1.07940207e-06 -6.83813414e-06
      -3.57523550e-06 -5.61338584e-06 -3.82252301e-06 -3.97198755e-06
      -3.24055077e-06 -4.10598977e-06 -5.02571766e-06 -4.87126999e-06
      -4.28345356e-06 -3.60634044e-06 -3.43298666e-06 -3.19304650e-06
      -2.33097444e-06 -2.23559960e-06 -2.67735209e-06 -1.66767700e-06
      -1.15004968e-06 1.84420841e-07 6.61917113e-07 1.17712864e-06
      7.17590467e-07 4.27355246e-07 5.57042767e-07 4.87035265e-07
      1.20067199e-07 9.20579113e-10 3.08253789e-07 7.91600655e-07
      1.36148435e-06 1.62835966e-06 1.73337946e-06 2.13623230e-06
      2.74071135e-06 2.96610028e-06 3.03934303e-06 2.74433728e-06
      2.23613279e-06 1.69853581e-06 9.43783618e-07 4.00284250e-07
      6.53616723e-07 8.02202862e-07 1.10378198e-06 1.26480325e-06
      1.26803877e-06 1.25100235e-06 1.58888690e-06 1.17550155e-06
      1.10600820e-06 1.08887798e-06 8.91304921e-07 1.23398752e-06
      1.42101931e-06 1.79517292e-06 1.94803079e-06 2.38891698e-06
      1.65171673e-06 1.44914429e-06 9.77611990e-07 1.16614456e-06
      1.25512565e-06 1.43226293e-06 3.73770854e-06 6.91815058e-06
      6.00779413e-06 5.11975031e-06 5.84612599e-06 4.28747262e-06
      3.57220324e-06 2.84314547e-06 7.62551622e-07 -3.35090886e-06
      -6.56546717e-06 -7.32264607e-06 -8.84061137e-06 -6.96767620e-06
      -7.93678464e-06 -7.38223480e-06 -7.39450797e-06 -4.60903124e-07
      2.66438269e-06 2.55465511e-06 2.10186636e-06 1.10649671e-06
      2.39547239e-06 1.93147002e-06 5.78091112e-06 5.79872813e-06
      6.56192378e-06 7.72108615e-06 8.57005216e-06 6.16297348e-06
      4.22812263e-06 7.07878917e-06 7.90256945e-06 8.18648641e-06
      8.10383881e-06 7.10080428e-07 -5.65218592e-08 -3.62550668e-06
      -1.43992884e-06 5.11034216e-07 -6.34829462e-07 -5.05582761e-07
      2.71278708e-07 7.44506451e-07 2.55460122e-06 3.69123245e-06
      3.90682726e-06 3.68072074e-06 3.60909758e-06 3.31066167e-06
      3.38527707e-06 3.29167119e-06 3.24911912e-06 3.26937334e-06
      3.22110736e-06 3.23753147e-06 3.19806054e-06 3.14351087e-06
      3.14223234e-06 2.47526145e-06 -1.30746230e-06 -1.80326799e-06
      -2.17247339e-06 -3.38259088e-06 -5.10237169e-06 -4.65165886e-06
      -4.81710958e-06 -4.34873527e-06 -4.95093900e-06 -5.95962820e-06
      -6.99633711e-06 -6.22468087e-06 -5.31277965e-06 -4.94933693e-06
      -5.50864070e-06 -5.35984873e-06 -3.79873336e-06 -4.03188733e-06
      -3.74638284e-06 -3.43359397e-06 -1.62773654e-06 -1.29632645e-06
      -1.72052808e-06 -1.44460546e-06 -3.29223667e-07 -2.98969297e-07
      3.64670029e-07 8.82666711e-07 9.08724928e-07 9.70150609e-07
      1.07419191e-06 1.00932732e-06 7.43703652e-07 5.91722767e-07
      7.29418730e-07 1.25698227e-06 2.33045830e-06 2.50358426e-06
      2.63843594e-06 2.67708447e-06 2.49383220e-06 3.19999867e-06
      2.72380521e-06 2.91876358e-06 2.42262149e-06 2.21434266e-06
      1.83711211e-06 2.08268193e-06 2.33756055e-06 1.21472794e-06
      7.61937429e-07 1.74383968e-06 3.71803139e-08 -1.15331034e-06
      1.98042699e-06 2.70151503e-07 2.69463681e-06 2.93199514e-06
      2.97883889e-06 2.82169503e-06 2.15109162e-06 1.85813951e-06
      1.50681637e-06 1.14288878e-06 3.29561033e-07 -6.81583913e-07
      -8.75602723e-07 -3.02858962e-06 -4.08364576e-06 -1.52316784e-06
      -1.54145812e-06 -1.63597531e-06 -2.47219623e-06 -3.51174322e-06
      -4.18336685e-06 -3.81297309e-06 -5.44494196e-06 -3.32173568e-06
      -5.41456893e-06 -4.55530972e-06 -3.17366425e-06 -2.96194298e-06
      -2.98598275e-06 -3.45654757e-06 -3.59785577e-06 -3.41449072e-06
      -3.13159512e-06 -2.64560595e-06 -2.45593606e-06 -1.77069637e-06
      -1.51388099e-06 -1.50016547e-06 -2.51955748e-06 -1.79621975e-06
      -4.51577222e-07 -2.51615091e-07 3.53825925e-07 6.02684622e-07
      8.01282056e-07 9.57150178e-07 5.66295626e-07 3.28150463e-07
      -8.90387497e-08 -1.19893651e-08 5.84377062e-07 9.73035753e-07
      1.36383767e-06 1.45561194e-06 1.59908291e-06 1.72004627e-06
      2.36844789e-06 2.60610568e-06 2.58292357e-06 2.39845622e-06
      2.16682656e-06 1.81019891e-06 1.20414029e-06 8.42169527e-07
      8.42873078e-07 1.04024434e-06 1.36457936e-06 1.51383097e-06
      1.47228104e-06 1.67452231e-06 1.90268202e-06 1.82419296e-06
      1.37738709e-06 1.00103318e-06 6.34193668e-07 8.73018564e-07
      1.59696162e-06 2.32697380e-06 2.50736753e-06 2.42172518e-06
      1.58559465e-06 1.28469446e-06 8.77585705e-07 1.22143183e-06
      1.36892118e-06 1.32528839e-06 3.90330933e-06 6.99864586e-06
      6.47896968e-06 4.78910033e-06 5.77140827e-06 5.59559703e-06
      5.79567632e-06 4.72802049e-06 4.94200913e-06 7.90416550e-08
      -4.88177466e-06 -3.58365696e-06 -6.62440289e-06 -8.03085550e-06
      -8.40720350e-06 -7.14215412e-06 -6.88133878e-06 -2.65758558e-07
      1.83433770e-06 1.77198694e-06 2.33117521e-06 1.14510590e-06
      1.23162499e-06 1.86541808e-06 1.88630804e-06 6.05509740e-06
      6.81750589e-06 7.73044849e-06 4.68996586e-06 6.17026626e-06
      6.02883256e-06 7.19946047e-06 7.96384757e-06 7.95448250e-06
      3.13434612e-06 -2.99672365e-06 8.93543984e-07 1.06661889e-06
      1.02642400e-06 -9.31131751e-07 -8.12750613e-07 -3.42424556e-07
      7.42948544e-07 1.76436936e-06 4.14371652e-06 4.08215510e-06
      3.96099222e-06 2.87271314e-06 1.31977959e-06 2.50740572e-06
      2.18980995e-06 1.94129416e-06 2.04622529e-06 1.80277857e-06
      1.50663971e-06 1.98866996e-06 1.83291957e-06 1.56269346e-06
      1.53858105e-06 9.76017759e-07 -1.95685789e-06 -1.96481687e-06
      -2.19415870e-06 -4.23499750e-06 -4.66324900e-06 -4.64299364e-06
      -4.27446639e-06 -4.52863378e-06 -5.33778257e-06 -6.71959788e-06
      -6.61874128e-06 -5.51926541e-06 -4.38672123e-06 -4.10108532e-06
      -5.23163362e-06 -5.43273245e-06 -5.27711200e-06 -4.32272327e-06
      -3.61163529e-06 -9.48066770e-07 -3.51446062e-07 -8.10752567e-07
      -2.01557714e-06 -1.16526894e-06 -1.95242910e-06 1.07177448e-06
      1.67538042e-06 2.06212553e-06 2.17193519e-06 2.39511564e-06
      2.79334563e-06 3.05244453e-06 2.83489794e-06 2.80378163e-06
      1.60533227e-06 2.13522458e-06 2.68228382e-06 2.14603642e-06
      1.09863970e-06 1.06892207e-06 1.49305254e-06 1.65835343e-06
      9.26333826e-07 4.52818739e-07 1.10963902e-06 1.85736042e-06
      6.72615670e-07 1.56431315e-06 2.46138325e-06 2.15054138e-06
      1.36444237e-06 2.02378124e-06 1.89449247e-06 1.66288842e-07
      -1.47423168e-06 2.12696773e-06 3.05907474e-06 2.99594603e-06
      2.98955615e-06 3.23356790e-06 1.81526980e-06 1.55326165e-06
      2.04440380e-06 9.12015196e-07 2.76590981e-07 -1.38214304e-07
      -3.23469806e-07 -5.55444103e-07 -4.55364301e-07 6.68435177e-07
      5.96831796e-07 4.78671097e-07 -2.87207715e-08 -7.90256138e-07
      -1.58038006e-06 -5.52312122e-06 -4.20463834e-07 -3.68915448e-06
      -3.79436187e-06 -2.01004150e-06 -2.34771915e-06 -2.62252524e-06
      -3.41622422e-06 -3.42536509e-06 -3.46983711e-06 -1.94306676e-06
      -2.10340431e-06 -1.90286710e-06 -1.96231349e-06 -1.64837456e-06
      -1.37786481e-06 -1.20647167e-06 -2.40051781e-06 -1.01446983e-06
      -6.19885668e-07 -7.79421669e-07 -6.91183573e-07 -1.66842437e-06
      -6.67892891e-07 -2.79425194e-07 -3.47437918e-07 -1.28732654e-06
      -1.65490144e-06 -1.04503681e-06 5.07851951e-07 9.02711179e-07
      1.43728619e-06 1.45571312e-06 1.38855273e-06 1.65186361e-06
      2.11552378e-06 2.32256525e-06 2.19497065e-06 2.11855968e-06
      2.05056176e-06 1.85608462e-06 1.33329854e-06 1.21397784e-06
      1.20136053e-06 1.27012993e-06 1.49182722e-06 1.75185289e-06
      2.01270723e-06 2.16440208e-06 2.15523119e-06 2.27267401e-06
      1.72553700e-06 1.00168188e-06 8.62391403e-07 1.66881773e-06
      1.87573403e-06 2.04727712e-06 1.97039662e-06 1.75978596e-06
      8.02286195e-07 3.48523685e-07 2.77002982e-07 7.11739631e-07
      9.53094286e-07 9.63391358e-07 3.17606145e-06 7.12870906e-06
      7.12512792e-06 5.53352766e-06 5.95346046e-06 5.54733833e-06
      5.56728946e-06 5.27098791e-06 7.01379713e-06 1.90385595e-06
      -3.61869684e-06 -4.35499669e-06 -3.22390292e-06 -4.67069776e-06
      -5.89119281e-06 -7.04493141e-06 -1.16335987e-05 -9.57793964e-06
      9.37211666e-07 2.51874803e-06 1.57599106e-06 1.27600060e-06
      1.27146654e-06 1.24326380e-06 9.99710551e-07 5.48708567e-06
      7.01977524e-06 7.87686258e-06 4.73144837e-06 6.26149222e-06
      6.03480885e-06 7.35593494e-06 7.87499448e-06 4.58570730e-06
      5.79258494e-06 -1.89872637e-07 4.99116027e-07 -1.53312726e-06
      -1.73919454e-06 -1.51370057e-06 -5.88373268e-07 -1.36370318e-07
      7.81464280e-08 2.91402330e-06 3.29028353e-06 2.97666861e-06
      2.98998816e-06 3.06486027e-06 2.85769556e-06 2.30102432e-06
      1.91133859e-06 1.77543905e-06 1.63811910e-06 1.81347332e-06
      1.86984471e-06 1.95725966e-06 2.54798647e-06 3.13582234e-07
      2.14978598e-07 1.38371718e-07 -2.10666212e-06 -2.91171023e-06
      -3.42979092e-06 -4.03142758e-06 -4.63633251e-06 -4.56880116e-06
      -5.09162601e-06 -5.59409864e-06 -5.50819368e-06 -6.19544971e-06
      -6.05505056e-06 -4.72072588e-06 -3.94349900e-06 -4.01101852e-06
      -4.61613490e-06 -4.63746619e-06 -4.68798044e-06 -4.19249045e-06
      -2.99259705e-06 1.53511024e-07 6.02741963e-08 -3.96718548e-07
      -1.16935439e-06 -2.43410796e-06 -2.03053310e-06 -1.10800488e-06
      2.38330676e-06 2.71103841e-06 2.74113290e-06 2.96724124e-06
      3.20560980e-06 3.26355439e-06 3.04456171e-06 2.13654630e-06
      2.07021662e-06 2.21117671e-06 2.83744134e-06 3.23191875e-06
      2.01087209e-06 2.01841613e-06 1.27055591e-06 9.89731120e-07
      1.51888594e-06 -2.99491290e-07 -3.69548985e-07 1.81137480e-07
      1.53581269e-07 7.28547036e-07 1.86656825e-06 1.49817413e-06
      9.59079216e-07 8.39574625e-07 2.57017268e-06 8.41291296e-07
      -3.97233208e-07 2.30053752e-06 6.46404771e-07 3.60767422e-06
      3.05425533e-06 2.24937048e-06 2.46906734e-06 2.29532088e-06
      2.05539550e-06 2.02119259e-06 1.52130178e-06 1.19510730e-06
      1.20003688e-06 1.05262018e-06 1.30711283e-06 2.08809161e-06
      2.33656306e-06 2.10805865e-06 2.28423437e-06 1.61760624e-06
      6.13437010e-07 -9.01626777e-07 1.93577250e-07 -3.44480577e-06
      -1.93232154e-06 -1.46434354e-06 -1.41826115e-06 -1.62269419e-06
      -9.63396246e-07 -1.34334232e-06 -1.59886417e-06 -1.93737128e-06
      -2.48531842e-06 -2.94510664e-06 -2.63731204e-06 -2.89789909e-06
      -1.16378487e-06 -1.19809897e-06 -1.60400350e-06 -1.43683224e-06
      -8.76023762e-07 -8.92999196e-07 -6.74210128e-07 -1.22834672e-06
      -1.95726284e-06 -1.90270134e-06 -1.44484841e-06 2.30103126e-07
      4.99330213e-07 -4.49199604e-07 2.83059478e-07 4.70870219e-07
      6.75240472e-07 1.44475121e-06 1.67939550e-06 1.77417439e-06
      2.01464013e-06 2.47216121e-06 2.58067507e-06 2.36962819e-06
      2.37421000e-06 2.07301605e-06 1.82682345e-06 1.85182694e-06
      1.59789079e-06 1.53824715e-06 1.55253690e-06 2.01711077e-06
      2.12031182e-06 1.83253860e-06 1.42369220e-06 1.24834992e-06
      7.75789545e-07 3.98681863e-07 7.65967059e-07 1.04273840e-06
      1.12756516e-06 1.44952821e-06 1.09697305e-06 1.58302960e-09
      -1.81572148e-07 -7.01761678e-07 -6.06071239e-07 -1.53419677e-07
      -7.05293672e-08 1.52659666e-07 1.04694618e-06 4.73886121e-06
      6.33269292e-06 5.89937781e-06 6.59879151e-06 6.10181223e-06
      6.02155205e-06 7.11345001e-06 6.83075223e-06 1.73095509e-06
      -1.75116543e-06 -3.83803581e-06 -4.39917949e-06 -5.96945029e-06
      -7.66159155e-06 -6.11317228e-06 -7.87819044e-06 -1.17847467e-05
      -1.05687388e-06 2.55086729e-06 2.42877672e-06 2.12959981e-06
      1.22327003e-06 1.91628624e-06 1.52289715e-06 5.58361171e-06
      7.16641580e-06 8.01162696e-06 5.08049288e-06 6.61991089e-06
      6.21660001e-06 4.39542418e-06 6.95253402e-06 6.42304622e-06
      -4.18618538e-06 -5.09728625e-06 -2.16762123e-06 -2.32898697e-06
      -3.01275827e-06 -2.09576524e-06 -2.76265467e-07 -5.07773628e-08
      1.47405319e-06 3.51018093e-06 2.93217226e-06 2.40800182e-06
      2.25973304e-06 2.16874992e-06 2.77084359e-06 1.92378207e-06
      1.57838122e-06 1.64238554e-06 1.64874439e-06 1.80989616e-06
      1.92434140e-06 1.93687356e-06 2.02053866e-06 1.88268211e-06
      1.53764495e-06 5.89503657e-07 -2.77038657e-06 -2.86189606e-06
      -3.77506422e-06 -3.63282516e-06 -3.91438562e-06 -3.27792895e-06
      -4.68595590e-06 -5.15986312e-06 -5.71691908e-06 -5.94173207e-06
      -5.80829646e-06 -4.67382824e-06 -3.95164352e-06 -4.03122840e-06
      -4.44238822e-06 -4.19813477e-06 -4.38034112e-06 -3.74710135e-06
      -2.45940350e-06 -1.91331981e-08 1.54936529e-07 -2.88723243e-07
      -1.17029322e-06 -1.40427778e-06 -2.45006959e-06 -7.41063218e-07
      -5.43038936e-07 4.99479029e-07 4.33328267e-07 2.93687549e-06
      3.42716476e-06 3.34701372e-06 3.11254985e-06 3.13732426e-06
      3.11186159e-06 3.04753144e-06 2.64187565e-06 2.38447728e-06
      2.23233633e-06 1.13743818e-06 8.76592424e-07 -5.48289563e-07
      1.31508841e-06 1.44797298e-06 5.12047961e-07 6.91597108e-07
      -3.45278892e-07 -9.53298525e-08 4.35733540e-07 7.61542083e-07
      3.71051641e-07 -3.37494299e-07 2.70924858e-07 1.31728279e-06
      -2.79194410e-07 1.67413600e-06 1.77187712e-06 2.96779899e-06
      1.62139634e-06 1.54427380e-06 1.78150026e-06 1.89001753e-06
      1.59681917e-06 1.46133004e-06 1.54268253e-06 9.36524941e-07
      6.68885718e-07 8.04068691e-07 9.04029207e-07 1.44280489e-06
      1.88149829e-06 2.10679650e-06 2.16052376e-06 1.85716635e-06
      -5.99520263e-07 4.89375793e-07 -3.26915028e-06 -3.08353378e-06
      -1.05904883e-06 -1.45490992e-06 -1.26393570e-06 -1.74697846e-06
      -1.34566187e-06 -1.44491537e-06 -2.40094141e-06 -2.71876706e-06
      -3.14810859e-06 -1.01115666e-06 -1.49268146e-06 -1.84025851e-06
      -2.68545955e-06 -3.25656333e-06 -2.49494769e-06 -3.31196998e-06
      -1.54809675e-06 -1.27493877e-06 -1.00917271e-06 -8.96054530e-07
      -1.20770767e-06 -1.44548312e-06 -9.78812182e-07 2.45201306e-07
      7.04998627e-07 5.21446886e-08 -5.41616714e-07 2.77500845e-07
      8.73097804e-07 1.03089053e-06 1.38470443e-06 1.26273221e-06
      2.29482453e-06 2.84049247e-06 3.10721543e-06 2.71364934e-06
      2.58353293e-06 2.27887926e-06 2.11095858e-06 1.98236580e-06
      1.73418255e-06 1.54091185e-06 1.39268207e-06 1.50817084e-06
      6.59880698e-07 -3.68696647e-07 -4.78014044e-07 -2.81945148e-07
      -1.93156609e-07 -2.11847833e-07 2.32417094e-07 9.49072160e-07
      1.16274077e-06 1.35704147e-06 1.35806692e-06 2.70242509e-07
      1.07136074e-07 -4.86075237e-07 -4.20595768e-07 -1.93026199e-08
      8.61602771e-08 5.06249933e-07 8.20720288e-07 1.90846504e-06
      4.85867849e-06 6.04343131e-06 6.24543600e-06 6.25952862e-06
      6.63322089e-06 6.30615887e-06 3.31539172e-06 1.96767473e-06
      3.58903833e-07 -2.67213386e-06 -4.66039182e-06 -5.37163032e-06
      -5.96521204e-06 -7.70914630e-06 -8.24012204e-06 -5.81560971e-06
      2.06933601e-06 1.16491890e-06 -4.54354506e-07 2.27389319e-06
      2.03846298e-06 2.40120880e-06 2.36030178e-06 6.41589122e-06
      7.24843540e-06 8.03839066e-06 5.35331355e-06 6.75728870e-06
      4.25667486e-06 7.55516066e-06 4.36872597e-06 3.70141447e-06
      -4.25446842e-06 -5.82356142e-06 -3.94686595e-06 -2.10203211e-06
      -3.20463232e-06 -2.02892829e-06 -1.39579936e-06 1.05418486e-07
      2.33402170e-06 3.30933403e-06 2.79296023e-06 2.53186431e-06
      2.38836128e-06 2.02330830e-06 1.53897986e-06 1.09334871e-06
      1.04659398e-06 1.08232302e-06 1.19054391e-06 1.46316825e-06
      1.37920449e-06 1.43711554e-06 1.55709984e-06 1.26276873e-07
      -9.94392053e-08 -1.52930951e-07 -1.94898530e-06 -2.24835480e-06
      -3.32474269e-06 -3.38676205e-06 -4.09365612e-06 -4.21873256e-06
      -4.60586671e-06 -5.30644138e-06 -5.72044655e-06 -5.89354067e-06
      -5.52206484e-06 -4.04864932e-06 -3.47999116e-06 -3.85970998e-06
      -4.23331676e-06 -3.99471355e-06 -4.18143918e-06 -3.64207563e-06
      -1.71227316e-06 -3.16063449e-07 -6.79570348e-07 -7.95337769e-07
      -1.44097794e-06 -1.77221932e-06 -1.50378810e-06 -7.55570966e-07
      -1.32809316e-06 9.09330083e-07 7.40389453e-07 9.97071652e-07
      1.51465792e-06 1.94515997e-06 1.63259062e-06 1.21541416e-06
      1.07327935e-06 2.83187774e-06 3.61897924e-06 3.52372149e-06
      1.31785271e-06 1.09582834e-06 8.14592283e-07 1.87637863e-06
      1.47060473e-06 1.37019879e-06 4.47927448e-07 -5.94485755e-07
      3.70047616e-07 -4.41293402e-08 2.10771578e-08 2.23688332e-07
      -2.41325694e-07 -4.43787940e-07 -1.74951936e-07 1.54988243e-06
      2.68793741e-07 -1.33787364e-06 3.05463345e-06 -6.49812534e-07
      2.03649529e-06 2.86674066e-07 -4.93224150e-07 -1.82069648e-08
      -6.06388596e-07 -9.05642594e-07 -8.30624685e-07 -1.32959246e-06
      -1.34990478e-06 -1.27631870e-06 -9.16067336e-07 -6.38944968e-08
      6.35705248e-08 1.64259902e-07 4.60649943e-07 2.96408615e-07
      -1.88962281e-06 5.74212038e-07 -3.68853580e-06 -2.38629104e-06
      -2.04692151e-06 -1.28698809e-06 -1.43689738e-06 -1.85450926e-06
      -1.74648096e-06 -1.21736900e-06 -2.27341479e-06 -2.53374560e-06
      -1.96855262e-06 -1.96923088e-06 -2.23961138e-06 -3.05322624e-06
      -2.71232261e-06 -2.44701255e-06 -3.46746242e-06 -2.99028511e-06
      -3.90828654e-06 -2.75131515e-06 -9.93822141e-07 -9.93935259e-07
      -1.04645949e-06 -8.07770164e-07 -7.53493850e-07 5.56144357e-07
      1.28207853e-06 7.14585383e-07 3.29666136e-07 8.38223798e-07
      -9.01503494e-09 6.21528045e-07 1.38420921e-06 1.09804466e-06
      1.45026320e-06 2.47153639e-06 2.88186425e-06 2.49606796e-06
      1.95718349e-06 1.60245611e-06 1.29726993e-06 1.22155757e-06
      1.15323257e-06 9.74698651e-07 8.02820011e-07 1.25586084e-07
      -7.09943720e-07 -1.00694297e-06 -7.05069453e-07 -4.42407838e-07
      5.02338615e-08 8.45772785e-09 6.07967081e-07 1.08143433e-06
      1.22560891e-06 1.48156516e-06 1.11088139e-06 -4.39527952e-07
      -8.17107036e-07 -1.77598838e-06 -1.01419255e-06 -3.29878532e-07
      -2.71986345e-08 5.55062059e-07 8.98464236e-07 9.29952705e-07
      1.31761237e-06 2.88212345e-06 4.15422937e-06 4.35337233e-06
      3.19723677e-06 1.23291147e-06 -3.99156157e-08 3.54194270e-07
      1.28373506e-06 -5.67920722e-07 -3.83968609e-06 -3.91539879e-06
      -4.95807126e-06 -7.00591227e-06 -7.12507426e-06 -5.55742918e-06
      5.19496325e-07 2.12890245e-06 3.67943699e-06 -4.58566376e-07
      2.38370171e-06 2.60175329e-06 2.35131643e-06 6.48637115e-06
      7.12617293e-06 7.96153017e-06 5.18769093e-06 4.81817096e-06
      6.27735426e-06 4.45989053e-06 4.32681873e-06 3.48107437e-06
      -5.90617356e-06 -4.87506168e-06 -3.89394745e-06 -2.08890947e-06
      -3.10414225e-06 -1.28873387e-06 -8.13405734e-07 -1.04794937e-08
      2.35333437e-06 2.62917729e-06 2.20929860e-06 2.14080160e-06
      1.63314746e-06 1.30912701e-06 1.14654199e-06 7.26030692e-07
      6.87254897e-07 8.38414906e-07 7.25447023e-07 1.19675576e-06
      1.13105648e-06 1.03204627e-06 -2.25764318e-09 6.50660041e-08
      -1.93691267e-06 1.78779388e-07 -4.08821620e-07 -1.17174739e-06
      -2.76169681e-06 -2.48769106e-06 -3.16709452e-06 -3.25980659e-06
      -4.03047216e-06 -4.98291138e-06 -5.24189727e-06 -5.35121944e-06
      -4.73450609e-06 -3.46848765e-06 -3.34770198e-06 -3.64568405e-06
      -4.06484833e-06 -3.74170963e-06 -4.12591726e-06 -3.72547902e-06
      -1.24944313e-06 2.36383016e-07 -1.88408407e-07 -1.02514036e-06
      -1.79403219e-06 -1.84787575e-06 -2.09953032e-06 -1.93754522e-06
      -2.24965925e-06 -2.10399253e-06 1.06778224e-07 5.57240583e-07
      7.25027405e-07 1.44580395e-06 1.34016466e-06 3.19717992e-06
      1.57140448e-06 1.75217622e-06 2.96653934e-06 2.13183807e-06
      2.14556394e-06 4.93031223e-07 1.42217141e-06 1.08613006e-06
      1.65043116e-06 1.63761717e-06 3.92198473e-07 1.13113174e-06
      8.10566689e-07 4.42680033e-07 1.10965823e-06 -1.61746954e-07
      -3.54249678e-08 7.03695775e-07 1.32067964e-06 2.17746197e-06
      9.83225505e-07 -1.52532618e-06 1.20616255e-06 -1.49834491e-07
      1.06171194e-06 6.74982459e-07 9.52252776e-07 -6.63839273e-07
      -6.59629563e-07 -7.78389904e-07 -2.00585035e-07 2.32777751e-07
      -4.81956306e-07 -6.62845764e-07 -6.14231567e-07 4.81580969e-07
      7.33447393e-07 6.36826314e-07 1.01339538e-06 1.62100889e-06
      -5.83542658e-07 -1.95319558e-07 -2.51504684e-06 -1.37242228e-06
      -9.48303409e-07 -1.32530340e-06 -1.52001337e-06 -1.77287029e-06
      -1.81392500e-06 -1.32382502e-06 -1.68444512e-06 -2.64013215e-06
      -2.60670754e-06 -2.66160714e-06 -3.48683170e-06 -3.64035509e-06
      -3.78443747e-06 -3.76692469e-06 -4.09830773e-06 -3.57816043e-06
      -1.85438455e-06 -2.54318525e-06 -3.39004032e-06 -2.59835520e-06
      -9.38118319e-07 -6.80636163e-07 -5.71865087e-07 3.47502748e-07
      1.51652443e-06 1.13385283e-06 2.90562184e-07 -4.85753048e-07
      -4.64437420e-07 -4.65546719e-07 7.79075606e-07 1.30970463e-07
      6.78117772e-07 1.24346627e-06 2.26422503e-06 2.26346128e-06
      1.74793377e-06 1.40488123e-06 1.13500039e-06 9.69374014e-07
      1.15517889e-06 1.12668727e-06 4.24216978e-07 -3.62511912e-07
      -3.74330426e-07 -3.32402607e-07 -8.52291109e-08 2.30954242e-07
      6.34123012e-07 8.43263877e-07 1.17019204e-06 1.33977142e-06
      1.42630574e-06 1.05596371e-06 1.32445302e-06 -5.76591333e-07
      -9.95480264e-07 -1.63993320e-06 -1.09685675e-06 -5.85986754e-07
      -1.27757147e-07 6.66453218e-07 9.59130944e-07 9.19128070e-07
      7.85524605e-07 2.92439523e-07 8.79911184e-08 1.55333154e-07
      1.03021137e-07 -6.17791471e-08 -5.07680170e-07 -6.17250066e-07
      3.39969915e-07 1.60215322e-07 -2.18746686e-06 -4.20612832e-06
      -5.21111224e-06 -6.66100823e-06 -5.74186288e-06 -6.99945667e-06
      -7.58280351e-07 -1.19590516e-06 -1.89694205e-07 1.95603980e-06
      -8.04986371e-07 2.33227411e-06 2.17595334e-06 6.46215403e-06
      7.08265998e-06 7.91396269e-06 1.75619687e-06 6.85557552e-06
      3.35696109e-06 3.42385965e-06 3.37090410e-06 2.20511970e-06
      -6.49954336e-06 -4.17530418e-06 -3.86481315e-06 -4.29274269e-06
      -3.25736733e-06 -1.17268030e-06 -1.10453777e-06 3.16523739e-07
      2.21727328e-06 2.07784615e-06 1.87996943e-06 1.66692064e-06
      1.26768543e-06 1.09028224e-06 8.79846425e-07 5.28823762e-07
      4.47897889e-07 4.69432905e-07 6.98132681e-07 9.89934392e-07
      -1.73137408e-07 -3.75711238e-07 -2.47013389e-07 1.71555143e-07
      2.11289333e-07 1.01662283e-06 -1.26955661e-06 -1.22631320e-06
      -2.01954890e-06 -2.24211749e-06 -2.56906196e-06 -2.73449268e-06
      -3.34145352e-06 -4.33409923e-06 -5.04924947e-06 -5.01236354e-06
      -4.11921746e-06 -2.97968495e-06 -3.13067130e-06 -3.31304182e-06
      -3.41907935e-06 -3.26999066e-06 -3.72260843e-06 -3.16091518e-06
      -5.01149827e-07 5.41180100e-07 3.60513866e-07 -6.01283659e-07
      -1.75554055e-06 -1.70509895e-06 -1.61415494e-06 -1.59250158e-06
      -7.86681881e-07 -2.15496789e-06 1.11322390e-06 1.22351412e-06
      7.10498853e-07 1.13642830e-06 1.63893753e-06 1.31357774e-06
      1.49429684e-06 1.61195703e-06 2.75437219e-06 2.73417254e-06
      2.83220697e-06 2.41187513e-06 2.41925045e-06 1.14606223e-06
      1.43173429e-06 2.01212060e-06 2.13974135e-06 1.69273608e-06
      2.53808525e-06 1.23833559e-06 6.36186996e-07 1.10457574e-06
      5.89166177e-07 2.00261434e-06 3.00449028e-06 3.38995051e-06
      2.52370614e-06 -9.35601179e-07 8.94831373e-07 -2.88682287e-07
      9.15131125e-07 9.09105040e-08 3.69595881e-07 1.78214691e-07
      6.75144562e-08 5.88351782e-07 9.75280955e-07 -1.98545968e-06
      -2.22563017e-06 6.36205073e-07 1.07163771e-06 1.35826349e-06
      1.73490992e-06 1.81375538e-06 1.63758705e-06 1.15401986e-06
      -8.06981948e-09 6.61509887e-07 -1.53351129e-06 -5.33304842e-07
      -6.61060255e-07 -4.70630141e-07 -1.58663750e-06 -1.57042678e-06
      -1.65770928e-06 -1.81936514e-06 -2.07586095e-06 -2.34304412e-06
      -3.13016108e-06 -3.60588319e-06 -3.96385212e-06 -3.74846718e-06
      -3.67302323e-06 -3.50177356e-06 -3.06170000e-06 -2.98705504e-06
      -2.97346287e-06 -3.16509318e-06 -2.19430194e-06 -3.37903316e-06
      -2.60320598e-06 -3.05629669e-06 -1.47334697e-06 -7.29592557e-07
      5.69016549e-07 4.41022308e-07 -5.07021696e-07 -1.02537308e-06
      -1.05268259e-06 -5.77671301e-07 -2.00140633e-07 9.73815304e-07
      5.52855283e-07 1.11727513e-06 1.90503840e-06 2.55833083e-06
      1.75049558e-06 1.37713096e-06 -3.09314601e-08 -3.05007632e-07
      -6.77256580e-08 1.40548863e-07 -1.07587550e-06 -1.54760335e-06
      -1.56844692e-06 -1.33194578e-06 1.95037330e-07 5.72876388e-07
      1.01693036e-06 1.45274782e-06 1.43722343e-06 1.47217099e-06
      1.58883961e-06 1.45460126e-06 1.67010467e-06 4.74344148e-07
      1.44675472e-08 -6.57141868e-07 -7.47579065e-07 -6.47942045e-07
      -1.18277562e-07 6.28119324e-07 8.00694067e-07 8.26807479e-07
      9.24411040e-07 2.15075161e-07 -4.57549362e-07 -2.07493983e-07
      -3.10023495e-07 -4.63671540e-07 -1.08878305e-06 -1.16739977e-06
      -6.28094767e-07 -1.77051402e-06 -1.68470922e-06 -5.24646612e-06
      -6.68711345e-06 -7.26482631e-06 -4.89358763e-06 -4.67491418e-06
      3.93670376e-07 -8.56231338e-07 1.19033587e-06 -4.71802679e-07
      -2.26435795e-08 -9.27459951e-07 2.20922698e-06 6.28298676e-06
      7.02525949e-06 6.35590868e-06 3.17660988e-06 3.50579762e-06
      3.30085663e-06 3.37749793e-06 3.51235894e-06 3.65873461e-06
      -5.79742937e-06 -3.55534621e-06 -4.52942641e-06 -4.43951058e-06
      -2.25238819e-06 -1.20136747e-06 -7.10462757e-07 7.71594785e-07
      2.08811230e-06 1.96522092e-06 1.88193258e-06 1.55175394e-06
      1.19454330e-06 1.01955209e-06 8.91955153e-07 4.41503005e-07
      5.69034171e-07 7.27037786e-07 7.76499917e-07 1.02651745e-06
      -7.59791092e-08 -9.34278148e-08 -2.82474737e-08 3.16895751e-07
      5.33055186e-07 3.06034963e-07 -6.39989139e-07 -7.56500754e-07
      -1.40198688e-06 -1.64570304e-06 -2.02730143e-06 -2.14001125e-06
      -2.75408638e-06 -3.54014878e-06 -4.22195353e-06 -4.19456410e-06
      -3.34121569e-06 -2.73305591e-06 -2.77784875e-06 -2.96909275e-06
      -3.38852192e-06 -3.24909843e-06 -3.42484782e-06 -2.56940348e-06
      -5.45786634e-07 5.67810368e-08 7.72493109e-08 -6.02488512e-07
      -1.48382503e-06 -1.42303281e-06 -1.42291219e-06 -1.35385687e-06
      -1.64144740e-06 -9.28550890e-07 -5.15338229e-07 1.52335713e-06
      1.04984531e-06 1.52747384e-06 1.79748133e-06 1.74168599e-06
      1.59368710e-06 1.70868293e-06 1.73137369e-06 2.01412354e-06
      1.80698157e-06 2.05597235e-06 2.09015570e-06 2.33645710e-06
      3.84700115e-06 3.63900131e-06 3.02378521e-06 2.91067636e-06
      2.77895788e-06 2.62480216e-06 1.62803474e-06 1.86678449e-06
      2.25734766e-06 2.90365256e-06 3.36300423e-06 3.49944139e-06
      3.13947658e-06 1.33114190e-06 2.45746810e-06 1.87747872e-07
      -1.64559435e-06 -1.06546679e-06 -3.20460600e-07 -2.93290782e-07
      1.02984882e-06 1.95840721e-06 1.65767517e-06 1.82011888e-06
      1.59602394e-06 1.59906938e-06 1.56462806e-06 1.19297715e-06
      9.78485900e-07 4.32561535e-07 1.23854204e-06 1.58360797e-06
      1.32959644e-06 1.46802608e-06 -5.87743216e-07 -8.64462990e-08
      -4.52645537e-07 -9.19831393e-07 -1.91923755e-06 -1.89373179e-06
      -2.14833176e-06 -2.40109557e-06 -2.86834484e-06 -3.20481172e-06
      -3.84176337e-06 -4.11121027e-06 -4.35789434e-06 -4.32736351e-06
      -4.19249682e-06 -4.15619525e-06 -3.69204076e-06 -3.42802036e-06
      -3.19174660e-06 -3.46147135e-06 -3.74176375e-06 -3.93145092e-06
      -3.57778708e-06 -4.19137405e-06 -3.36165317e-06 -1.42838417e-06
      -1.56016327e-07 3.62347862e-07 -4.58164834e-07 -1.02100603e-06
      -1.27705698e-06 -7.61087222e-07 -4.56523964e-07 1.82261076e-07
      1.40513919e-06 1.17338129e-06 1.77606660e-06 1.89002435e-06
      1.82824238e-06 1.45974639e-06 1.44493484e-07 -3.23091427e-07
      -1.03458476e-07 1.89426260e-07 -1.23535131e-06 -1.87779335e-06
      -1.46739023e-06 -1.56326530e-06 -1.23117661e-06 5.79011726e-07
      1.22045856e-06 1.57053626e-06 1.42494855e-06 1.48285005e-06
      1.61748187e-06 1.66639938e-06 1.44357637e-06 3.10178137e-07
      -6.32866204e-08 -5.89308627e-07 -8.29331157e-07 -7.47658305e-07
      -1.34909186e-07 6.22168272e-07 7.19447712e-07 7.21049844e-07
      7.92609967e-07 5.19270827e-07 -2.67227875e-07 -5.59984869e-07
      -1.01551859e-06 -1.48211313e-06 -2.75244270e-06 -2.84084672e-06
      -2.42696046e-06 -3.74302863e-06 -2.94283905e-06 -3.82734106e-06
      -5.48599064e-06 -7.29975545e-06 -8.95560061e-06 -5.75986178e-06
      1.32892478e-06 7.48584057e-07 1.24238454e-06 -2.34710228e-07
      1.62655226e-06 -1.48420656e-06 2.20129323e-06 6.20416449e-06
      7.04840204e-06 5.53674499e-06 4.91368110e-06 2.04920320e-06
      3.24299731e-06 1.33063452e-06 2.81957091e-06 3.27156363e-06
      -6.23011920e-06 -5.84730742e-06 -4.27778787e-06 -3.91735239e-06
      -1.84530052e-06 -6.56368513e-07 1.80321535e-07 1.53612700e-06
      2.46482091e-06 2.13724456e-06 2.16223134e-06 1.87299452e-06
      1.70347300e-06 1.64160326e-06 1.39169367e-06 1.05712957e-06
      1.14996351e-06 1.34978791e-06 2.63748632e-07 7.74061277e-08
      -1.37171696e-07 8.25701605e-08 7.10286884e-07 5.01532156e-07
      6.46586045e-07 5.81903123e-07 -2.86419407e-07 -1.91711180e-07
      -6.22881942e-07 -1.15179125e-06 -1.67341886e-06 -1.93636947e-06
      -2.43479212e-06 -3.26050008e-06 -4.08367441e-06 -3.79541871e-06
      -3.04435821e-06 -2.68880581e-06 -2.61831906e-06 -2.82298242e-06
      -3.17936065e-06 -3.19106971e-06 -3.31866318e-06 -2.64928372e-06
      -1.03839625e-06 -4.38093707e-07 -5.65257665e-07 -1.35558480e-06
      -1.70462374e-06 -1.18215416e-06 -1.35032167e-06 -1.79560345e-06
      -1.92333164e-06 -1.57260865e-06 -1.14730051e-06 -1.17188449e-06
      4.20279576e-07 7.02227112e-07 7.39893096e-07 7.09823553e-07
      6.78669721e-07 5.92144772e-07 7.59251407e-07 9.30755903e-07
      1.11658801e-06 2.66101893e-06 2.64746564e-06 3.29532918e-06
      4.15960631e-06 3.23618292e-06 3.18095726e-06 3.71870283e-06
      3.58814395e-06 2.49501704e-06 2.91836750e-06 3.05280059e-06
      3.05951721e-06 2.62702770e-06 2.86215595e-06 3.43284387e-06
      3.39116741e-06 2.82548194e-06 4.45862679e-06 1.66703910e-06
      1.73797605e-06 1.50898074e-06 -3.31317516e-08 1.65833694e-06
      2.02000274e-06 1.67371445e-06 1.48973936e-06 -1.20331651e-06
      -2.09864220e-06 2.65170371e-07 1.09686448e-06 1.96166184e-06
      2.41773841e-06 2.67804921e-06 2.22954122e-06 1.94575341e-06
      4.94765175e-07 1.63916093e-06 4.55007836e-07 5.26608346e-07
      -4.25802284e-07 -1.75094419e-06 -2.28956833e-06 -2.14053080e-06
      -2.50953144e-06 -3.27434168e-06 -3.66797667e-06 -4.00025510e-06
      -4.24307655e-06 -4.35369930e-06 -4.47808998e-06 -4.98833242e-06
      -4.83251688e-06 -4.65965650e-06 -4.09396580e-06 -4.00163299e-06
      -3.65352093e-06 -3.25207361e-06 -3.01586465e-06 -3.20127947e-06
      -3.86976717e-06 -2.68918984e-06 -3.75541822e-06 -3.53317068e-06
      -2.42240162e-06 -1.34905616e-08 -2.72736429e-07 -5.36030598e-07
      -1.04797959e-06 -1.19545757e-06 -4.78870220e-07 5.02762759e-07
      8.27683607e-07 1.56526312e-06 1.28559475e-06 1.54345264e-06
      6.37926917e-07 4.32947331e-07 6.33504726e-07 2.24894208e-07
      1.56778590e-08 -2.09311665e-07 -1.35519724e-06 -1.62777064e-06
      -1.76345043e-06 -1.65736935e-06 -1.24633493e-06 5.12862755e-07
      1.47002743e-06 1.62920230e-06 1.38126609e-06 1.64240271e-06
      1.84910766e-06 1.74699426e-06 5.69934286e-07 5.26921269e-07
      -9.29150730e-08 -6.15377019e-07 -8.24461949e-07 -8.61421711e-07
      -2.47746158e-07 5.18370598e-07 5.87586385e-07 6.44161503e-07
      6.21901393e-07 5.73560840e-07 -1.34022071e-06 -1.49152129e-06
      -2.55047485e-06 -2.59872377e-06 -2.67822588e-06 -2.62203798e-06
      -2.29469288e-06 -3.35098116e-06 -3.62428887e-06 -4.08870892e-06
      -5.70768725e-06 -7.47459853e-06 -9.02650663e-06 -5.98277438e-06
      1.64620974e-06 6.68627479e-07 1.31117793e-06 -8.38204926e-07
      -1.32859054e-06 1.94226550e-06 5.07172217e-07 6.48216474e-06
      3.29203635e-06 7.23185030e-06 5.39437679e-07 2.53603707e-06
      2.30670048e-06 -3.00616279e-07 1.61952198e-06 3.00320971e-06
      -4.91342644e-06 -3.90773221e-06 -3.16680598e-06 -2.38401026e-06
      -1.06559651e-06 3.21240656e-09 5.99949374e-07 2.04028674e-06
      2.66798997e-06 2.30318506e-06 2.27906639e-06 2.16344029e-06
      2.05918991e-06 2.03193213e-06 1.73185140e-06 3.03214051e-07
      4.05407491e-07 4.33749960e-07 -2.22542127e-07 -8.02358613e-07
      -6.12214535e-07 -3.97934542e-07 -1.24381458e-07 2.20485006e-07
      6.64577612e-07 7.10824111e-07 -3.44069861e-07 -1.74378454e-06
      -2.94592326e-07 -6.96916743e-07 -1.27355042e-06 -1.82553845e-06
      -2.68355097e-06 -3.10895098e-06 -3.51419112e-06 -2.99043199e-06
      -2.78253788e-06 -2.12518898e-06 -2.77661184e-06 -2.97337647e-06
      -2.84478801e-06 -3.14598856e-06 -3.54598160e-06 -3.01943714e-06
      -1.59546050e-06 -9.64299034e-07 -1.08973109e-06 -2.14135662e-06
      -1.73463650e-06 -1.09020823e-06 -9.19717024e-07 -1.52281166e-06
      -1.93013580e-06 -2.33458400e-06 -2.35114817e-06 -1.98684529e-06
      -2.98149083e-09 1.98164557e-07 2.89006749e-07 -9.94618432e-09
      8.52635793e-08 1.66375401e-07 1.90307139e-06 1.56154101e-06
      1.85668068e-06 2.51935785e-06 3.39902067e-06 3.53927317e-06
      3.26511758e-06 3.36441758e-06 3.41865393e-06 3.37255210e-06
      2.43009185e-06 3.16829482e-06 3.84059740e-06 3.93926939e-06
      3.49032166e-06 3.05915364e-06 2.86368345e-06 3.70570774e-06
      3.54949771e-06 2.76644550e-06 4.55872078e-06 3.59581395e-06
      -1.76125570e-06 -2.86264026e-06 -1.75144066e-06 -9.18625688e-07
      -3.16688414e-07 7.10512893e-07 9.54293228e-07 8.49983223e-07
      -6.75303511e-07 -2.51987967e-06 -2.07769403e-06 -2.98881915e-08
      8.83208997e-07 5.88186310e-07 -3.06096069e-07 2.66082793e-06
      2.06819459e-06 -9.45953616e-07 6.78164440e-07 1.29495288e-06
      -7.59975762e-07 -1.69949942e-06 -1.46150580e-06 -2.00428190e-06
      -2.81965140e-06 -3.60735385e-06 -3.84114355e-06 -4.02033811e-06
      -4.13792077e-06 -4.77371259e-06 -5.32523200e-06 -5.44360046e-06
      -4.79741720e-06 -4.41633892e-06 -3.93238270e-06 -3.84410441e-06
      -3.73436819e-06 -3.32851050e-06 -2.95583573e-06 -2.68496001e-06
      -3.19769333e-06 -3.69563190e-06 -3.99733699e-06 -3.55112411e-06
      -2.52862947e-06 -2.27752707e-06 -4.52050386e-07 -5.04387856e-07
      -5.71199394e-07 -8.72351052e-07 -5.62772698e-07 9.69142206e-08
      7.06126627e-07 1.59545903e-06 1.59163369e-06 1.75199045e-06
      1.25639838e-06 1.53473749e-07 2.89923747e-07 1.29828152e-07
      -1.48719835e-07 -5.85098974e-07 -1.64190101e-06 -1.74763329e-06
      -1.83857492e-06 -1.65035669e-06 -1.26435157e-06 3.51397546e-07
      1.29285991e-06 1.45349736e-06 1.48490176e-06 1.97836675e-06
      2.23279176e-06 1.94179484e-06 1.16345859e-06 8.76930585e-07
      -3.26024896e-08 -1.11511191e-07 -4.75797862e-07 -1.04902142e-06
      -8.63532591e-07 1.52126791e-08 -1.14688373e-06 2.40201132e-07
      -5.35909464e-07 -8.75224941e-07 -1.41229907e-06 -2.18748073e-06
      -2.58330761e-06 -2.09280938e-06 -2.29314901e-06 -2.16230910e-06
      -2.09698737e-06 -3.88665148e-06 -4.42579494e-06 -3.19978813e-06
      -4.21529012e-06 -5.41876852e-06 -7.63914159e-06 -5.55136967e-06
      1.29973239e-06 8.69289977e-07 1.62803281e-06 -4.65751725e-07
      -1.02800550e-06 2.33256128e-06 4.85854173e-07 6.69407655e-06
      5.21437551e-06 5.68526275e-06 4.47607363e-06 2.13677845e-06
      1.49752896e-06 9.02359943e-07 2.04582193e-06 3.06096786e-06
      -3.85136673e-06 -3.12086377e-06 -2.25528584e-06 -1.52367363e-06
      -1.15048522e-06 -4.79669325e-07 -1.89292976e-07 1.64004666e-06
      1.87075523e-06 1.73644912e-06 1.66690336e-06 1.56591022e-06
      1.85098406e-06 2.13393923e-06 7.02518093e-07 4.71601112e-07
      3.97158516e-07 -3.23671259e-07 -7.63542857e-07 -7.16686998e-07
      -2.98255856e-07 -2.32137111e-07 -3.98615384e-07 -1.55406497e-07
      3.31652927e-07 6.58352974e-07 -3.99325415e-07 -1.51099937e-06
      -3.88528179e-07 -9.22041067e-07 -1.31595220e-06 -1.95279449e-06
      -2.53061739e-06 -3.28020451e-06 -3.56489431e-06 -3.04028117e-06
      -2.57504325e-06 -2.65709741e-06 -3.29815248e-06 -3.51824815e-06
      -3.04043101e-06 -3.38789869e-06 -3.96425821e-06 -3.58509078e-06
      -2.38336861e-06 -1.89878506e-06 -2.04499406e-06 -2.86833620e-06
      -2.38508642e-06 -1.48501806e-06 -7.20882667e-07 -1.52066684e-06
      -1.97490272e-06 -2.13360840e-06 -2.67619225e-06 -2.29480952e-06
      -2.16002968e-06 -9.39697088e-07 -7.99428165e-07 -1.17775403e-06
      -7.81336382e-07 -6.31977912e-07 -3.65421329e-08 1.06578602e-06
      2.18449782e-06 3.52029929e-06 3.75690729e-06 4.61401760e-06
      4.17844103e-06 4.00137696e-06 3.32268473e-06 3.08662493e-06
      1.77808226e-06 2.83567488e-06 4.09355380e-06 4.15340492e-06
      3.96854421e-06 3.88348553e-06 3.45092008e-06 3.36922994e-06
      2.97705969e-06 2.38906250e-06 3.88482204e-06 8.60564029e-08
      -1.04674621e-06 -2.06591903e-06 -1.65470351e-06 5.26953343e-08
      1.12061343e-06 1.99625811e-06 1.83797181e-06 1.42051806e-06
      3.11400044e-07 -1.83600605e-06 -3.21846051e-06 -2.13150747e-06
      1.04083097e-06 2.16855187e-06 1.64529274e-06 -5.17169312e-08
      -4.28609383e-07 2.00402496e-06 8.14509519e-07 1.80880420e-06
      -1.61939937e-07 -1.09536882e-06 -1.34784591e-06 -2.32416801e-06
      -2.78369225e-06 -3.56518603e-06 -3.62821083e-06 -3.87360205e-06
      -4.79384926e-06 -5.45950888e-06 -5.52788015e-06 -5.10814243e-06
      -4.63997821e-06 -3.80645383e-06 -3.63932600e-06 -3.77060269e-06
      -3.78531149e-06 -3.36926428e-06 -3.50500136e-06 -3.23610402e-06
      -3.05854269e-06 -3.05479762e-06 -3.13587134e-06 -3.66007725e-06
      -2.39540191e-06 -1.94792142e-06 -2.59646276e-06 -8.59234888e-07
      -5.90032528e-07 -5.53558380e-07 -3.55727195e-07 -4.43109627e-07
      3.10257832e-07 3.07587413e-07 1.15857722e-06 9.46967987e-07
      7.59261184e-07 2.21318402e-07 1.99670325e-07 -2.89159573e-07
      -3.77407247e-07 -7.41162808e-07 -1.71072998e-06 -1.70783278e-06
      -2.04967409e-06 -1.93762003e-06 -1.79417282e-06 -1.09294410e-06
      -9.59033954e-08 1.40856412e-06 1.72345074e-06 2.18743639e-06
      3.23758331e-06 2.04129083e-06 9.46551665e-07 5.44631405e-07
      -2.33102213e-07 -1.84768567e-06 -2.26196471e-06 -2.98015357e-06
      -2.44134230e-06 -1.48672507e-06 -1.28799638e-06 -1.24454846e-06
      -9.63000161e-07 -8.86446287e-07 -1.85423903e-06 -2.26604675e-06
      -2.53938993e-06 -2.74788272e-06 -3.37458755e-06 -3.58226271e-06
      -3.21484458e-06 -3.75935451e-06 -4.60102956e-06 -2.61746413e-06
      -2.39879819e-06 -4.80934159e-06 -6.94804294e-06 -5.02642342e-06
      1.24767450e-06 8.30578415e-07 1.82464203e-06 2.03863593e-07
      -7.03844364e-07 2.87781063e-06 8.67694268e-07 6.96375764e-06
      5.82869188e-06 5.76740103e-06 7.44661929e-06 2.42760029e-06
      8.11330494e-07 7.02534294e-07 2.63279526e-06 -5.11787812e-06
      -3.19137075e-06 -2.67809969e-06 -1.95929192e-06 -2.03394961e-06
      -1.65023516e-06 -1.46229434e-06 -9.95702862e-07 1.45512911e-06
      1.59562160e-06 9.17483760e-07 1.32554965e-06 8.88338207e-07
      1.26539487e-06 8.11776715e-07 7.03906494e-07 -3.14404076e-08
      -2.66423569e-07 -9.81575340e-07 -1.07444339e-06 -5.23108099e-07
      -4.12402756e-07 -5.42529847e-07 -6.91939306e-07 -5.44160685e-07
      -4.44761014e-07 -6.17262572e-07 -1.29637067e-06 -1.95792973e-06
      -7.07209665e-07 -1.46604816e-06 -2.04159437e-06 -2.21140226e-06
      -3.00383454e-06 -3.99549390e-06 -3.85428712e-06 -3.13483702e-06
      -2.69584098e-06 -2.68007852e-06 -3.32369677e-06 -3.31504089e-06
      -3.14907356e-06 -3.28328224e-06 -3.13827445e-06 -3.65674282e-06
      -2.85899546e-06 -2.72728721e-06 -2.87706598e-06 -3.40876795e-06
      -2.88453543e-06 -1.75485332e-06 -7.08403320e-07 -1.53782719e-06
      -2.27193323e-06 -2.67461178e-06 -3.33341086e-06 -3.71608098e-06
      -3.65291726e-06 -1.73107196e-06 -1.86768887e-06 -2.57114084e-06
      -2.27146279e-06 -1.94255176e-06 -1.67912947e-06 6.11210623e-07
      2.72076045e-06 3.54284089e-06 3.76802109e-06 4.07705784e-06
      4.12796498e-06 3.20825188e-06 2.52420750e-06 1.36318795e-06
      1.58816215e-06 1.98409066e-06 3.11668396e-06 4.23772144e-06
      4.63411743e-06 4.53099483e-06 3.48508365e-06 2.93230141e-06
      2.69941711e-06 9.67291953e-07 -7.32987360e-08 8.40687449e-08
      4.37334450e-07 -7.64035349e-07 -1.88101831e-06 8.78263165e-07
      1.29844193e-06 2.33960509e-06 2.23982283e-06 1.45695890e-06
      -5.24947950e-07 -1.66386315e-06 -2.07003814e-06 -2.64782557e-06
      -2.03086444e-07 1.50656558e-06 1.74754382e-06 9.97522989e-07
      2.48309163e-07 -9.94054631e-07 8.73652425e-07 1.45132537e-06
      3.28347163e-08 -5.64689287e-07 -9.77705895e-07 -1.67557766e-06
      -2.79799315e-06 -3.14344220e-06 -3.58504826e-06 -4.47910588e-06
      -4.96656503e-06 -5.32174181e-06 -5.36120569e-06 -4.85879946e-06
      -4.66869733e-06 -3.92247739e-06 -3.77953984e-06 -3.74696970e-06
      -3.52002598e-06 -3.48458298e-06 -3.79448147e-06 -3.74668593e-06
      -3.67206462e-06 -3.14132126e-06 -2.71395106e-06 -3.14545923e-06
      -2.69594329e-06 -2.42038459e-06 -2.75496677e-06 -3.58386706e-06
      -1.70479075e-06 -7.24788777e-07 -2.67063598e-07 -1.61251918e-07
      -2.65128808e-08 -2.07333457e-07 6.24040581e-07 6.24484869e-07
      1.86488336e-07 1.30481993e-07 8.82067468e-08 -4.84578891e-07
      -3.44355300e-07 -8.36457161e-07 -1.85269698e-06 -1.75548973e-06
      -2.30525075e-06 -2.45211027e-06 -2.13524868e-06 -1.09488212e-06
      2.12825224e-08 2.24116107e-07 1.70558826e-06 1.88864169e-06
      5.13052441e-07 6.28590954e-07 -3.80803357e-07 -8.49538992e-07
      -1.87973899e-06 -2.41621706e-06 -2.72513489e-06 -2.78999482e-06
      -2.14601391e-06 -1.43409352e-06 -1.44863407e-06 -1.38757980e-06
      -1.33173421e-06 -1.39703081e-06 -1.72067689e-06 -3.27167572e-06
      -3.35978530e-06 -3.97804297e-06 -3.10412997e-06 -2.95128393e-06
      -3.93171558e-06 -3.83680435e-06 -5.05602611e-06 -2.07845346e-06
      -2.01484727e-06 -4.21826326e-06 -6.67142467e-06 -4.84540078e-06
      1.34550226e-06 1.20352820e-06 2.15168302e-06 7.83609892e-07
      -1.94761071e-07 -4.99463226e-07 1.73943818e-06 7.21144715e-06
      5.72337876e-06 5.62538935e-06 3.73724174e-06 4.67418840e-06
      1.15620003e-06 7.27935742e-07 2.49919617e-06 -4.98217651e-06
      -2.01796388e-06 -3.16410615e-06 -2.59518424e-06 -2.52314044e-06
      -2.27852684e-06 -1.92375956e-06 -1.74186948e-06 6.74944545e-07
      1.36681865e-06 8.37027585e-07 6.59043963e-07 -1.19677543e-06
      -9.13756651e-07 1.27082671e-07 -3.86705707e-08 -6.03454168e-07
      -1.33887556e-06 -2.09311588e-06 -1.86615102e-06 -1.05321271e-06
      -9.88433385e-07 -1.15094531e-06 -1.17023740e-06 -1.16738602e-06
      -1.19807123e-06 -1.66053064e-06 -2.41278576e-06 -2.72255215e-06
      -1.49508980e-06 -1.88224055e-06 -2.38781013e-06 -2.76425567e-06
      -3.31903834e-06 -4.21218192e-06 -3.95057259e-06 -2.69920815e-06
      -2.50599078e-06 -2.75232924e-06 -3.44049590e-06 -3.01350838e-06
      -3.13704754e-06 -3.19654305e-06 -3.08650328e-06 -3.59482465e-06
      -2.98774171e-06 -2.67423502e-06 -3.12525935e-06 -3.45934336e-06
      -2.78915741e-06 -1.32180344e-06 -3.92599418e-07 -9.57143470e-07
      -1.98527914e-06 -2.83426789e-06 -3.43058855e-06 -3.77319429e-06
      -3.42509747e-06 -1.21674100e-06 -1.35573168e-06 -2.21596633e-06
      -2.04655680e-06 -4.36593018e-06 -2.12867735e-06 2.06531503e-08
      9.58477813e-07 1.54038776e-06 2.16600029e-06 2.90465005e-06
      3.82581902e-06 3.40494694e-06 2.72328521e-06 1.72830551e-06
      2.05930201e-06 2.04741104e-06 2.55652890e-06 4.26786892e-06
      4.95445875e-06 4.83963095e-06 3.71192300e-06 2.64661548e-06
      1.95648477e-06 -1.27818339e-07 6.44917009e-08 1.15663659e-06
      1.00739931e-06 -7.50713127e-07 2.22733638e-06 3.82843518e-06
      4.03741478e-06 4.47154662e-06 4.29435340e-06 3.28344618e-06
      2.58853697e-06 2.16449234e-06 2.20854668e-06 1.42687065e-06
      1.53297958e-06 2.57154420e-06 -1.33018239e-06 8.11086124e-07
      1.40729333e-06 3.15196218e-07 4.82118367e-07 1.48468951e-06
      5.53326458e-07 -1.10602613e-07 -1.27302019e-06 -1.76932451e-06
      -2.88022693e-06 -2.99630756e-06 -4.03522836e-06 -4.59199782e-06
      -4.83914573e-06 -5.00199531e-06 -4.97857536e-06 -4.89307831e-06
      -4.80578092e-06 -4.12536474e-06 -3.78550703e-06 -3.44187765e-06
      -3.25948145e-06 -3.39397502e-06 -3.71813667e-06 -3.84103578e-06
      -3.77291326e-06 -3.35545815e-06 -2.98069085e-06 -2.63539596e-06
      -1.86475779e-06 -2.45224851e-06 -3.33707794e-06 -3.60269951e-06
      -4.10181610e-06 -1.33667595e-06 1.07428200e-08 1.40960239e-07
      -2.63854446e-07 -3.50168989e-07 -4.63982275e-07 3.03436963e-07
      3.27101645e-07 4.38809820e-07 -2.42627664e-07 -5.20370236e-07
      -2.15507328e-07 -6.82306336e-07 -1.78858818e-06 -2.16924855e-06
      -2.59808417e-06 -2.44947546e-06 -2.01662806e-06 -5.71750718e-07
      -7.21413826e-08 1.06735342e-07 2.91487765e-07 3.35035139e-07
      2.96782503e-07 5.77619574e-07 -3.30962365e-07 -1.21279572e-06
      -2.58512273e-06 -2.72678017e-06 -2.72455668e-06 -2.47077560e-06
      -2.10302414e-06 -1.62534593e-06 -1.55017631e-06 -2.49691857e-06
      -2.84359476e-06 -2.82145152e-06 -2.96873077e-06 -2.69765360e-06
      -3.20680351e-06 -3.87931823e-06 -3.31625938e-06 -3.44974592e-06
      -3.48746357e-06 -3.45416834e-06 -5.23531935e-06 -2.76413971e-06
      -2.29169177e-06 -4.65287576e-06 -7.08433163e-06 -5.18849174e-06
      -7.24978781e-06 1.24465203e-06 2.27655300e-06 1.08183679e-06
      2.75425305e-06 -3.01497863e-07 3.08812582e-06 7.27139559e-06
      5.59318050e-06 5.13973873e-06 6.72770511e-06 4.70194936e-06
      3.61351249e-06 4.48379842e-06 4.90993216e-06 -5.91958178e-06
      -2.58891237e-06 -4.28177282e-06 -3.62310288e-06 -2.86928139e-06
      -2.55972463e-06 -2.24243581e-06 -2.02812043e-06 8.57389011e-07
      7.40596420e-07 8.54037523e-07 -1.91833760e-06 -1.96923020e-06
      -1.71186559e-06 -7.65874120e-07 -5.40898895e-07 -1.90141373e-06
      -2.11104316e-06 -2.50977905e-06 -2.28740282e-06 -1.49363257e-06
      -1.12251189e-06 -1.24071175e-06 -1.15080172e-06 -1.00063937e-06
      -1.14270949e-06 -1.75992523e-06 -2.65569088e-06 -3.22149867e-06
      -1.97022064e-06 -1.86365048e-06 -2.14829174e-06 -2.79277265e-06
      -3.21397806e-06 -3.77528067e-06 -3.94149902e-06 -2.73469414e-06
      -2.17099182e-06 -2.98952250e-06 -3.38980249e-06 -3.07694313e-06
      -3.25265569e-06 -3.09921620e-06 -3.18290813e-06 -3.13554460e-06
      -3.07802088e-06 -2.67884730e-06 -3.30268995e-06 -3.60384183e-06
      -2.81739563e-06 -1.43105694e-06 -6.05253149e-07 -9.50984315e-07
      -1.95610096e-06 -2.79097935e-06 -2.75634602e-06 -3.10967357e-06
      -1.43686191e-06 -2.47467085e-07 1.98496295e-07 -1.15326418e-06
      -1.51660686e-06 -8.44126646e-07 1.05861638e-07 6.67413872e-07
      3.83587235e-07 1.31972399e-07 7.22068933e-07 1.84909311e-06
      3.03716502e-06 3.14314002e-06 1.82894667e-06 2.34324125e-06
      2.82175711e-06 2.74409217e-06 3.96645009e-06 4.26219776e-06
      4.13045018e-06 4.58635259e-06 3.58933744e-06 2.72605075e-06
      2.09111340e-06 1.22645122e-06 9.91129014e-07 1.29577393e-06
      3.64175708e-06 4.11144856e-06 3.04493483e-06 2.48338210e-06
      2.31621038e-06 1.59008368e-06 1.58926446e-06 1.12444559e-06
      9.51677293e-07 1.18277364e-06 5.04446461e-07 -1.08556748e-07
      5.46468073e-07 2.20863126e-06 2.05905508e-06 1.61083221e-06
      1.48665066e-07 2.57471100e-07 3.48771692e-07 1.90045296e-06
      1.21602409e-06 8.16356930e-07 -1.79929728e-07 -1.34388119e-06
      -2.28757358e-06 -3.90716605e-06 -4.31688750e-06 -4.42297369e-06
      -4.61181116e-06 -4.75095385e-06 -4.86599765e-06 -4.99432736e-06
      -4.95226004e-06 -4.20313745e-06 -3.85939302e-06 -3.33743651e-06
      -3.16713226e-06 -3.22679693e-06 -3.44074124e-06 -3.61154935e-06
      -3.51300673e-06 -3.21939956e-06 -3.04804826e-06 -2.49312143e-06
      -1.20201389e-06 -1.62236722e-06 -3.14403474e-06 -3.72507293e-06
      -3.43176362e-06 -3.69235431e-06 -2.31057086e-07 1.15210952e-07
      -1.65148606e-07 -2.09474294e-07 -5.91267167e-07 5.08687890e-07
      1.05197876e-06 7.58644660e-07 -3.43004594e-08 -1.54401043e-08
      -9.11647149e-08 -5.32993170e-07 -1.89800539e-06 -2.40232976e-06
      -2.34507547e-06 -2.24730024e-06 -1.88613319e-06 -4.26019739e-07
      1.07488276e-07 -1.44052265e-07 2.99824080e-07 2.32966030e-07
      1.27853411e-07 -6.68958478e-07 -1.00763793e-06 -2.29888178e-06
      -2.72660054e-06 -2.67230394e-06 -2.54386987e-06 -2.13597582e-06
      -3.05939443e-06 -2.79432948e-06 -2.48523679e-06 -2.23949996e-06
      -2.23057668e-06 -2.08200959e-06 -3.46020897e-06 -2.83859504e-06
      -2.78363223e-06 -3.44882960e-06 -3.36111543e-06 -3.45988587e-06
      -3.29509749e-06 -3.31544675e-06 -5.32506283e-06 -3.30809507e-06
      -2.52302925e-06 -5.07212008e-06 -7.15666511e-06 -5.49668130e-06
      -7.87588124e-06 4.01065927e-06 5.07633740e-06 3.88528815e-06
      -2.31891974e-07 3.18194384e-06 3.63021559e-06 7.48899356e-06
      5.59948194e-06 7.06019364e-06 6.68607845e-06 3.59783007e-06
      1.03140087e-06 5.61944546e-07 4.81945472e-06 -2.50231733e-06
      -4.53069134e-07 -1.99778924e-06 -4.43281624e-06 -2.83001918e-06
      -2.95448740e-06 -2.53978442e-06 -2.44602029e-06 1.05345279e-07
      -1.86464672e-06 -5.53235679e-07 -1.25029567e-06 -2.05317633e-06
      -1.42757108e-06 -4.26533262e-07 -1.84582632e-06 -1.75614014e-06
      -2.40420832e-06 -2.76431388e-06 -2.08821280e-06 -1.52315658e-06
      -8.45981162e-07 -1.09983444e-06 -1.22061863e-06 -1.09578968e-06
      -1.35105915e-06 -2.02203660e-06 -2.75489174e-06 -3.41755162e-06
      -2.29254215e-06 -2.21314667e-06 -2.02205933e-06 -2.61226978e-06
      -3.31778097e-06 -3.96138239e-06 -3.86415286e-06 -3.03559546e-06
      -2.53220287e-06 -3.59785645e-06 -3.99219289e-06 -3.89616616e-06
      -3.75916579e-06 -3.38970676e-06 -3.44903333e-06 -3.45815965e-06
      -2.69915904e-06 -3.07843447e-06 -3.94181279e-06 -4.30462387e-06
      -3.26882946e-06 -1.96989708e-06 -1.08911945e-06 -2.14556758e-06
      -8.35953472e-07 -2.35312814e-06 -3.04096829e-06 -1.77099662e-06
      -7.55019357e-07 -5.42790531e-07 7.45957550e-07 6.28576686e-07
      1.44198361e-06 7.77988475e-07 2.17112984e-06 2.07749804e-06
      2.15497334e-06 1.15654132e-06 1.18673108e-06 1.57627392e-06
      1.71653437e-06 2.25125882e-06 1.58887133e-06 2.01036028e-06
      2.98068881e-06 3.92425318e-06 5.07847471e-06 4.60432693e-06
      4.08528422e-06 3.86572401e-06 2.99824342e-06 2.27990813e-06
      1.74102058e-06 1.41723615e-06 2.04764251e-06 3.89444222e-06
      3.97328313e-06 5.44979412e-06 4.94243159e-06 4.19692287e-06
      3.93405026e-06 3.11905592e-06 2.67941596e-06 2.15171599e-06
      2.59252261e-06 1.78000755e-06 1.52635209e-06 5.24754284e-07
      5.30507862e-07 1.17279012e-06 1.44051725e-07 2.70371913e-07
      1.69921236e-07 1.39938123e-07 -8.53736992e-08 1.64275730e-06
      1.41015823e-06 9.91616048e-07 4.85621172e-07 -4.09962695e-07
      -1.84471094e-06 -3.72213140e-06 -3.99706960e-06 -4.12220743e-06
      -4.18448462e-06 -4.39344967e-06 -4.64499180e-06 -4.65134508e-06
      -4.67277869e-06 -3.92422407e-06 -3.36579592e-06 -2.80237418e-06
      -2.81425469e-06 -2.91591459e-06 -3.03496881e-06 -2.88725846e-06
      -2.59526041e-06 -2.73474461e-06 -2.88493015e-06 -2.72126476e-06
      -1.33804690e-06 -1.10348662e-06 -2.35331095e-06 -3.27204793e-06
      -3.36085895e-06 -3.25358542e-06 -2.99082058e-06 -1.30128157e-07
      -3.53376265e-07 -1.06207256e-06 -8.76898582e-07 -7.29990063e-07
      1.16334934e-06 1.13261297e-06 4.09528496e-07 3.04422883e-07
      9.19021304e-08 -2.39180650e-07 -1.62715423e-06 -2.13804333e-06
      -2.12073496e-06 -2.18389005e-06 -1.99264491e-06 -6.01780812e-07
      -1.21258141e-08 -2.88912023e-08 -4.40929533e-08 1.50028058e-07
      -5.27093995e-08 -1.63438631e-06 -3.12748352e-06 -3.45379249e-06
      -3.48701360e-06 -3.27247380e-06 -3.15878856e-06 -2.68968415e-06
      -2.63942889e-06 -1.64749497e-06 -2.54264683e-06 -2.39581436e-06
      -2.62368849e-06 -2.71995759e-06 -2.93485664e-06 -2.55705868e-06
      -2.23924872e-06 -2.73881233e-06 -3.15167040e-06 -3.38735890e-06
      -3.23238328e-06 -3.10247947e-06 -5.29777208e-06 -3.33807952e-06
